[[{"bias":0.9237309624749189,"weights":[0.8649450043688472,-0.6353398744625922,-0.15030807419605363]},{"bias":0.6573451021298992,"weights":[0.4852372925766386,0.7623795106726394,0.0954027923948698]},{"bias":-0.9433255183835132,"weights":[-0.4028386946317464,-0.095703966028352,-0.989818423304961]},{"bias":-0.5088335275997813,"weights":[-0.10638638464984229,0.17079824926770276,-0.419919621631896]},{"bias":-0.8050694105949434,"weights":[-0.6845845739204055,0.3667029569655309,-0.08410776965431974]},{"bias":0.43214149045599726,"weights":[0.3898915319176783,-0.6829092689277969,-0.06053707007206244]},{"bias":0.22236883878544722,"weights":[0.7562437384718209,0.3786531063524959,0.8356870209995835]},{"bias":0.9072012433717803,"weights":[-0.7878612338189286,0.5023766098398394,-0.1772733581650987]},{"bias":0.2842317257387095,"weights":[-0.680021359589524,0.43605383659544605,-0.10007119798569564]},{"bias":-0.4382329329452853,"weights":[0.5801637043807761,0.8547597040688792,-0.36366138188154373]},{"bias":0.15816374244351872,"weights":[-0.1018900512329118,-0.30685555770957684,0.38302751888162406]},{"bias":-0.5652527114987163,"weights":[0.16497169866191674,-0.34965212388653066,0.7485004278748102]},{"bias":0.5521431111461275,"weights":[0.4958897223665763,0.48033898438300476,0.6696401838397423]},{"bias":-0.6628549772476688,"weights":[-0.8563496307324905,-0.7359632293757037,-0.9972924859864838]},{"bias":0.7742318619997156,"weights":[0.8416857873852256,-0.5006769863019973,0.5911988738619054]},{"bias":0.896704738676156,"weights":[-0.868073524341677,-0.1499267267924347,-0.6769627081733601]},{"bias":0.26367022800636475,"weights":[-0.7216740998554674,0.28585747179115384,0.33279043722722695]},{"bias":0.18488994946543835,"weights":[-0.42345489521593116,0.29431687880271085,-0.48734021737394484]},{"bias":-0.3258612309096918,"weights":[0.8381239667057097,0.574662763086736,-1.0]},{"bias":0.40027979174080697,"weights":[0.4773284852139654,1.0,-0.011168706682560245]},{"bias":0.9598275105260892,"weights":[0.6080452240233714,-0.8038394433744109,-0.2688163966864177]},{"bias":-0.9851661807681649,"weights":[-0.11546734244988244,-0.7455864182432839,0.03316194165394599]},{"bias":-0.0070057011070834285,"weights":[-0.9699986193410184,0.822257315374384,0.8881183286048782]},{"bias":0.5223026766887573,"weights":[0.7782165369606631,1.0,0.3276124161273315]},{"bias":0.0342703308701191,"weights":[0.35774138082124785,0.5937983997622915,0.8626106277138863]},{"bias":-0.8518609542952951,"weights":[0.28837868041995085,0.5002039338391469,0.38153997932418227]},{"bias":0.8659650661078754,"weights":[0.2967662273199173,-0.4824609303551526,0.18669574612189033]},{"bias":0.4334961737048819,"weights":[-0.9762042935017288,0.37234491881839593,0.5378656846370049]},{"bias":0.8991453744293646,"weights":[0.17788061515247255,0.5621239721295486,0.29793039261681703]},{"bias":0.42307569086161445,"weights":[-0.19611203545959122,-0.0023724808894005633,0.8156192779628602]},{"bias":0.6518637867813171,"weights":[-1.0,0.5072851281530546,-0.9872147457666927]},{"bias":0.7180380975796057,"weights":[0.8724410067324158,0.7878148934202078,0.4219898626897629]},{"bias":0.6467890047124644,"weights":[0.5017637176800885,-0.2762680961527314,0.8974208747415964]},{"bias":0.7405755002102423,"weights":[-0.42415202248686557,0.8449430143320524,0.5891324529270107]},{"bias":-0.04320746663161166,"weights":[-0.3617838820419088,-0.6473370445093587,0.7033473258422656]},{"bias":0.46972480857807897,"weights":[-0.05079613403370553,0.33542134778861304,0.7578204452972046]},{"bias":0.24492918225290294,"weights":[-0.8038473087943088,-0.43897793580304345,-0.6148357401033802]},{"bias":-0.47443753676676303,"weights":[-0.560774058161452,0.3711697684078521,0.9303748008043877]},{"bias":-0.962671597646859,"weights":[-0.2901775456430836,-0.24216527623975015,-0.9441413029085743]},{"bias":-0.9131707580606081,"weights":[-0.6384096622293152,0.059874307113931206,-0.41682866710457755]},{"bias":0.9135324899035302,"weights":[0.7431888615828708,0.7382789505287779,0.16289495226035466]},{"bias":0.00893471639813015,"weights":[-0.2409737658724973,-0.762444070959257,-0.9931218247763138]},{"bias":0.20048007733291628,"weights":[0.7663300875622681,1.0,0.4722675169135466]},{"bias":-0.1254409130866212,"weights":[-0.2973021991376994,0.6489553468402818,0.4246897349765774]},{"bias":0.3288868421359643,"weights":[-0.5006921036892971,-0.03671305847377804,0.02261135717604823]},{"bias":-0.76480642274247,"weights":[-0.41899756109285885,0.28856798025433894,-0.7079760880197341]},{"bias":-0.15025749064500404,"weights":[-0.5293723186488264,0.27044402019736863,0.7157147397888463]},{"bias":0.31692939112206275,"weights":[-0.7722579731999342,-0.7247991008787569,0.5508074834846624]},{"bias":0.4618175417940886,"weights":[0.44452291941336197,0.7213886786603605,0.43552077503254216]},{"bias":-0.391478506171246,"weights":[0.7450047190785386,-0.0577692321345567,-0.7990178269396824]},{"bias":0.5454375767356012,"weights":[0.662833947298826,0.4028331416719513,-0.6196345358466582]},{"bias":-0.9674917031752934,"weights":[-0.06913114024309452,0.7322434198281261,-0.2280247761388261]},{"bias":0.06319701399077093,"weights":[0.6671472270122935,0.7694042531373482,0.9924652141698944]},{"bias":-0.33398489035164447,"weights":[-0.24690015409927968,0.7391974888465324,0.48628856664325093]},{"bias":0.40643178340847114,"weights":[-0.34052501155392667,0.5248954277899566,-0.5510721487131592]},{"bias":0.6129575607640017,"weights":[0.8367504579803917,0.8906038294988492,-0.48776019299700557]},{"bias":-0.44300190038858916,"weights":[0.6437432522274467,0.47987091842383744,-0.4722866034608373]},{"bias":0.5255515265544429,"weights":[-0.1152610189160756,-0.8310642612872914,0.9860882324458711]},{"bias":-0.3326217388121596,"weights":[-0.9510117361005648,0.29609735950565863,-0.03604067185523063]},{"bias":0.9549293997861492,"weights":[-0.25652257289261726,0.31223941579609876,0.6789623075306825]}],[{"bias":0.8477877129104873,"weights":[0.6447453504731799,0.3470696849127446,0.4235561468389153,-0.14515116399749894,0.5764065814481483,1.0,-0.5913822068429648,-0.7566623076904323,0.5271065145561287,0.08927066605203171,-0.720359770277767,0.5449192991312541,-0.46759323240225115,-0.25875471224460034,-0.4286531736183923,0.5170514806808024,-0.29367645095812467,-0.3924449797742775,0.3640813327847723,-0.7672872176439748,-1.0,0.7130381273510098,0.8091110430416277,0.6326319298469034,-0.3781636969313935,0.6782402173806192,-0.1631012564636558,-0.5631464563215225,-0.21983907787846446,0.06450008369464819,-0.9982579715955913,0.6893355685775133,-0.21281998926946555,0.46247147321355975,0.1805648478335385,-1.0,0.8626140508855462,0.5780099339163959,0.5506240179129391,-0.016097642385483998,-0.010421158033856237,0.7208479661946221,0.17324529224403373,-0.7902345759924585,0.5887382355720132,-0.2869498106505306,0.8610959921760784,0.9580188709980915,0.5180554690916894,0.8034443078169415,0.8367999085877926,-0.9270261952802641,0.9126922095757615,0.14998937344720842,0.8326104017562979,-0.2070601994798303,-0.08513737728876425,0.5408392418983263,0.15507651682215817,0.7510812171119821]},{"bias":-0.7420159495489987,"weights":[-0.37422543627940597,0.4148633241055395,0.24650288478135707,-0.6460528290166686,0.7140995879061877,-0.33774373557664716,0.001878601632100907,-0.8268137218900917,0.1429562048068306,-0.47680995413730726,0.8162289667517394,0.8225489021148321,0.7802535378589064,0.6513284807820212,0.6941919945315447,-0.35511057911676897,0.3411225177171319,0.4918408564579936,0.8828730306818788,-0.06050206154083382,0.0503838658090241,-0.4002425157018399,0.42436583780273285,-0.3582769019330758,-0.5523180659177283,0.4386849989065751,-0.3119232504023537,0.4042349724051508,-0.8396583826750135,-0.4775259406474542,-0.5524306175600056,0.617656335592156,-0.5489013716033906,-0.09096815084015963,-0.24024591769186363,-0.03379180246875224,0.802492095011119,-0.690030526492535,0.9945184318488409,-0.5749655421570798,0.8313862252394911,0.0381920179855066,-0.7299933830500821,-0.17129306073500644,-0.1454925984980444,-0.19363631521078742,-0.43835745795731057,0.7457115749841536,0.6213675169884465,-0.6204508613945438,-0.875038456912038,0.2727065438088204,0.7247825332190061,-0.18474392119810432,0.04256479963271714,-0.007908424978784023,-0.00844783750385434,0.4700913726771305,0.9485796889621878,0.6948459459988626]},{"bias":0.7453756378220854,"weights":[0.9080925407497049,-0.41563146695822534,-0.8870132516868714,-0.587787123486759,0.14332578276345712,0.6927212872280114,-0.17970001563098803,0.5969158587982902,0.5591723930252153,0.298168350468331,-0.81962990778403,-0.2772014624517811,-0.2446209027062436,0.7528277482632375,-0.05929960869863393,0.6966642810822403,0.6660027775803532,-0.046133887226493364,0.15128667949122865,-0.2624179378514886,0.2482917222187982,-0.5762192957056755,-0.3684774172752894,-0.29333151162106974,-0.31398488777547184,-0.7305507928187831,-0.6606184244518221,-0.6480896731461048,0.21347507591514958,-0.7177674035843808,-0.879885527081158,0.8989647727551695,0.30373083048723526,0.3863254382796161,-0.7888801048114742,0.6393968766442204,-0.5399527196870229,0.8595643784254241,0.9235479885314843,-0.7359738968083214,0.5927031636245523,-0.5106548044975443,0.22369292898285267,0.8416577837851729,0.8616126485664485,-0.49034202553258543,0.9727702294462901,-0.09607361934242788,0.5954345106973705,-0.5504499329129828,-0.599400320174091,0.25358208958946404,-0.7031802375495642,-0.29585022334237143,0.8976707486774509,-0.70157771774215,-0.9335281539976482,-0.33289972338987894,0.5231558846365004,-0.7800482590209095]},{"bias":0.6963895364852086,"weights":[-0.6961288205329259,0.8919803562234647,-0.9000660848977642,0.35835075522668447,0.555571018623491,0.4694556310555349,0.6348982416901814,0.3926502218185368,-0.26232749241946385,0.18876619050400942,-0.11245649208174191,1.0,0.9279985020251601,0.5291626907894735,0.043468971187004435,-0.974926227344727,-0.7565923879048159,-0.690102355299944,0.16669008242212457,0.2531932010885049,-0.4067230189867357,-0.6022848129738125,-0.010978910445371609,-0.5677225214291207,0.12184162149083066,0.0964907538080325,-0.7387975821785695,-0.0364857068591884,0.7356507567914559,-0.5591196431290317,-0.34166110989786896,-0.8432953201466651,-0.40835586260614826,-0.05321306759566058,0.10376609994712382,-0.08389019970248399,0.20354835549178274,-0.8006537607846029,-0.6468967861021979,1.0,0.5312391811813312,0.37364124436007773,-0.2555083594042662,-0.8579922496452212,-0.4413463276337639,-0.47579742747114784,0.7082959444839743,0.42366115178101627,0.6653872343986844,-0.5985929550515756,0.8682723368078218,-0.7364181580272925,0.8670097290555177,-0.42456439047407457,0.8014633998997267,-0.34417685944612897,-0.9013171972527811,-0.4977118919310608,-0.9712303694855637,0.8268716645029058]},{"bias":-0.5204068875163033,"weights":[0.6719977469889957,0.7333820424451636,0.9745852443968512,0.5446591116011761,0.8710868702713221,-0.9270071687795004,0.31036204437747505,0.03005662436266654,0.13197497338533815,0.21865998104145068,0.05597658112176655,0.44941763623201686,0.1411769597711091,-0.165256233376786,-0.3512447863546262,-0.9563052254144648,0.3023464851275057,0.043426279435160975,0.8755016092414146,-0.635120572180639,-0.9074466997483207,0.11401193881704855,0.7339547558261192,0.27427721257996257,-0.28384351198818125,-0.40978269445337195,0.07949872951496516,-0.60853090604762,-0.9756529535592712,0.35872316771829327,0.7830459637732964,-0.788101859124075,0.2997672532164445,-0.4757360132667426,-0.2941407197363309,0.37919555229750435,0.5247334656403018,0.6503148290502949,-0.9880622485058101,-0.29924602469798156,0.7257409221758708,0.8185020593050989,0.7937113243138475,0.14025118089860866,0.6994662856420577,-0.9029928121261057,-0.20051374272952804,-0.5137214547877997,-0.4427989369014145,-0.9363662359467633,-0.25828024573241753,-0.017171591714197465,0.8022814978648283,0.6643059176612612,0.3746372022571113,-0.1836369246621416,-0.07169670092526514,0.3149534162830161,-0.8946711742406834,0.3721881339286055]},{"bias":0.0803302917442836,"weights":[-0.6914089135785877,-1.0,0.5364990232241894,0.7987936920285201,-0.29504106130466345,-0.26801701932213273,-0.0720818259792142,-0.3333920354336435,-0.5641123006131603,0.8446441995023668,-0.9956042695201024,-0.7796079485994744,0.12572895582860477,0.736626567401196,0.4446623248192534,-0.06335328314599326,-0.6853313256332682,-0.2173537205968327,0.9422794295673174,-0.0754735473342444,-0.1535252830240439,-0.4660852033644205,0.5078827748594494,-0.9988110687239091,-0.3317651685674803,-0.08376141147166044,-0.6557431654188637,0.10612442403396027,-0.8446704318001572,-0.6753789304805072,0.45099675752882185,1.0,-0.8170711834536033,0.0436450711486609,0.12269068952784945,-0.3218398458821329,0.3597471386017681,0.582048424179026,0.38798094157875257,0.20754199084991942,0.45068742591540634,0.826425220917617,0.42895103365167053,-0.716643541316286,-0.37779779279870196,0.5239409843150233,-0.1589566109452778,0.423990938617238,-0.023191228550718535,0.6604970573422252,0.8007964701330224,-0.7879807754396106,0.09516295419724141,-0.17496167954420677,-0.7737817976615935,0.4231125944512198,0.19079635486715407,0.06779607063107217,0.7337750079452614,-0.14867125270801834]},{"bias":0.6823122459657682,"weights":[-0.19896843098228925,0.8713986144094203,0.18049004803612007,0.24534959608242524,0.31261730138893695,-0.48721619775386044,-0.4396563774289901,-0.4919821155014601,0.9890129899096138,0.4996602915994367,-0.8366749254359362,-0.18795287924385523,0.0988678702801562,0.20492962540785115,0.7547619134294625,-0.5856269613959136,-0.8844345924584328,0.8697722338869021,0.09519733465694594,-0.3586322641155333,0.9666161631913304,-0.6903994210127409,-0.26923800633358236,0.6738423431263598,0.033234633827277094,0.1494002328022308,-0.5857147526916533,0.9839612913888126,0.3611977194849067,-0.8894186128841353,-0.3818124613764935,-0.06603884160526707,-0.5590821154526631,-0.9885157888975735,-0.1525892936658506,0.43095530569958784,0.44731467206948405,-0.37153209280028054,-0.13332259745550346,0.24971626553697746,0.5161966429042368,0.00789285809798243,0.8004314960081178,-0.7809970930389654,0.2500498134014526,-0.899706651752247,0.42343541793483563,-0.5791191655960777,-0.4129976805884076,0.6855812587230958,0.13732625510692964,0.1882503390901884,0.6159836934410303,0.22257937684084617,0.6377723145337524,-0.9401788247782767,0.6931959915452106,-0.680902100754357,-0.16683624926576268,-1.0]},{"bias":-0.8897487086940972,"weights":[1.0,-0.9642740167583854,-0.8708081179979446,-0.8295874448890648,-0.040293421393876816,0.6624067271818131,-0.7486104119045076,0.1087491787963972,-0.3854521522948027,-0.6655967354104191,-0.6535317562223454,-1.0,-0.43841725650001484,-0.1274903732826042,0.5461252849490477,-0.33417357650290924,0.3252670654327656,0.26775918278491284,0.9514357499638977,-0.8684936879052443,-0.833485837588976,-0.4158716712418977,-0.1285201726219987,-0.09250632960697613,0.6478105089053803,0.861396213165877,-0.8037665953456838,0.06598362331199858,-0.333326503221122,0.018726035275358655,-0.5420292407240139,0.5148600568482364,-0.564198665435676,-0.9802073147071777,0.633260761388993,-0.9519911928148542,0.7777524414603945,-0.23538185617528212,-0.3521310045624778,-0.2049076607937086,-0.8082682612793,0.5346754666657836,-1.0,-0.9717141926516609,0.9256616878271635,-0.2989074948974944,0.14477134259196411,-0.37472690766877337,0.0024208925463363035,-0.9489766728286377,-0.3730544283762134,0.3303227882567964,-0.7382782220854969,-0.5103942252228837,0.5345076308790779,0.29019245340009153,0.5425194487558129,-0.9418564174494133,0.8831047252823803,-0.8073793418771312]},{"bias":-0.5343188443585002,"weights":[0.9210875822763236,0.11527575952165064,0.017132778083188693,-0.025039810853067265,0.15838625887651786,0.17172848593810786,0.24774580127760482,0.9900439203602103,-0.18710313907941373,-0.6521152648440979,-0.4332180717137215,0.2877186316231435,0.3785988861089091,-0.35607789896238673,0.8086652364825849,0.27183577989789365,0.5388257175391846,-0.27475671998484485,-0.1459504410838359,-0.623965770100067,0.20804985801826037,-0.22732727765189464,-0.23015921813599904,0.8418729746138314,-0.0334013049015458,-0.1014698735477535,0.09557608652077343,-0.38556513991569863,1.0,0.6284284405788951,-0.045187194896333605,-0.5777608336486351,0.31548881038109405,-0.09023729860119989,-0.4803264490386052,0.043640795466514934,-0.4654135195199094,0.9177526872531638,-0.47429623519533104,-0.6773022486044269,0.8824801733094767,0.48042910862971944,0.27267503454481645,1.0,-0.3666538774733894,0.8003611619650915,0.6969832595225436,-0.6337020950186787,-0.6863467196132044,0.622106586272384,-0.7556891354739088,0.5198911587822865,0.8275364334681756,-0.9929087267681713,-0.15999540302026227,-0.23401334129095333,-0.865827992130203,0.49639183682070076,-0.5498474186503514,-0.7633281002926781]},{"bias":-0.7415805786935046,"weights":[0.4334961742512599,-0.017395215512084103,-0.23808576851750818,0.8701974601397836,0.17843786481763074,-0.4944776506607065,-0.43555293567492814,-0.4643982782364975,-0.6174723100548871,-0.8095151238835993,1.0,0.6221522004997351,-0.1328008171974134,0.5212478718661475,0.11671860543235324,-0.16016158702170968,0.31835381576093624,0.4766548169718332,0.6863525565159936,-0.5452282473872598,-0.5441928594866003,0.851229117015452,0.5725185515063709,-0.4652458853125174,0.9020348832247014,0.1853167016517555,-0.4073831383723485,-0.5263053652872887,0.7251265671364044,0.9652891794749743,-0.8703778956758841,-0.35632468137852014,0.7017364703371777,-0.8282884282694073,0.8985813275025295,0.8154776119910476,-0.8554460287802872,0.21010661827470578,-0.47167968202884014,0.5025952078702418,-0.24299250481654822,-0.8180794452535132,-0.2351632527883472,0.8794263344289073,0.4264978196913015,0.06170949763198985,-0.6245833937493205,0.2225815817500132,0.37954943951559084,-0.9083437747187655,-0.9498520359601885,0.6297983879565815,0.7953259723972455,-0.7645370374700549,0.2667011110235822,-0.9023261395094213,1.0,0.8507077568450738,-0.5247069305365235,-1.0]},{"bias":0.06042897463207897,"weights":[-0.3547839816751335,0.4709161275681245,0.44446056238545095,0.6988881129448201,0.5015535820419571,-0.637987494925921,0.027602377255367586,0.3276045063940939,-0.8878246356705666,0.11512874460010103,0.7266448969369959,-0.895512675432879,0.39896054246455503,-0.6323779558924171,-0.011425004812013098,-0.7305637139711396,-0.9379163068226086,0.43279519751534556,-0.8144515245574362,0.36805569416835693,0.6876005405098318,-0.8919937925793993,-0.4190586507082985,0.29486884349698306,0.32361237696276474,-0.385434618661479,0.0027532835078156737,0.7231171497394852,-0.7630662945592642,-0.9088763859255798,0.19284362283194803,-0.12949234295985068,-0.04641175566659602,-0.024625145051171513,0.4314156192819489,-0.09136471413756908,-0.3121004295704013,-0.8934980325517119,-0.8854886284707306,-0.3646171696576612,0.40662530168675604,0.9692560572945501,0.23846739261849326,0.45950189855031154,-0.9049044790699945,-0.11138973981344602,-0.3290349918285333,-0.4052309606453921,-0.41387622755372266,0.9938146773885208,0.9864139952497122,-0.41354404883156215,0.1805233999385476,0.7276134391483029,0.6266509216237552,-0.6340648386912774,0.8183609131804035,0.7089527303952196,-0.8539682554892096,0.08945977972163129]},{"bias":0.1697434431207829,"weights":[-0.5812720427768845,-0.9342262874566555,0.6727643210032799,-0.7591040767521298,-0.22277815403798062,0.12419797494294434,-0.9347540140018484,-1.0,0.24741251552480703,-0.4032558912363493,-0.4365166235234983,-0.671235152427596,0.7097168455988809,0.2060390293284913,0.6251065443867891,0.3038291868533737,-0.3894431098457519,-0.6680227735669291,0.3678429172015947,-0.44642983582295065,-0.16358886574090858,0.12168014047868603,-0.5781541405803505,0.14448688143021204,-0.9575396437271807,0.4253465905079694,0.6270029525682554,0.2901398770350627,-0.6377287825898805,-0.20944749077048974,-0.32759866677431226,0.9573726928960262,0.273337579493365,-0.8804997016791662,0.033323502850420655,0.6973147061843394,-0.03676262008427834,0.22536926274375665,0.23489308285707616,0.752298923673361,0.0340461719028181,-0.8055904797666691,-0.8981636148119732,0.5100096479392341,-0.3540928295186463,-0.5304359277316704,0.91679001819826,-0.4242896754958476,-0.35255785549525864,-0.5512742215808082,-0.7563704027405336,-0.06610164251131816,0.13738580789797825,0.5552987255191669,0.9515297617453853,0.6889233193889654,-0.6632019325297663,-0.29491184718501273,0.8153184918551247,0.3378338417377744]},{"bias":0.4179019796154119,"weights":[-0.018276454678616716,0.023585900094009293,0.6241888365563288,-0.35108953163676704,-0.40710429806164605,0.2043543321488819,-0.4939554426724705,-0.6763613355925058,-0.08417653492848709,0.04201818562805215,-0.6921945981160388,0.12436934341608774,-0.3059461078370996,0.5579947277324959,-0.4153685933956601,-0.10252174962137035,-0.4941241313361391,0.6851455709318115,-0.19553316659712205,0.7359984728505062,0.1978452236074042,-0.660217801863408,-0.012977968828868675,-0.7130773773615731,-0.1707371253991853,1.0,0.9050371231234239,-0.7151797871600358,0.9763997401518091,-0.9210080718984388,0.07544106110861559,0.5264499575631483,0.05896449324139752,-0.19780030487995848,-0.04870274976324239,-0.4019121627532884,-0.53423156455631,0.27939025310215165,-0.8996003325106932,-0.8439447194848588,0.19886315098454146,-0.3060022967868693,0.8513516270015725,0.8378778793484551,0.20578682277015162,-0.22537495531366403,0.6277856257952716,0.8463116155103947,-0.38022372343066513,0.9605715264906003,-0.07259479788876932,-0.4713969882989813,-0.8898629157923339,-0.768899544406902,1.0,0.45490620581351404,0.17294679269001012,0.09799174725748516,-0.18028829815450909,0.25678439049218893]},{"bias":0.6694887047964332,"weights":[-0.4010469313210696,0.4130310186902033,-0.6369683824163205,-0.9780592083659576,0.05628338888304152,-0.6276256187074236,-0.38410818057567114,0.7030422801114038,0.38363208210194477,-0.44377237141108017,0.835604795315497,0.2724727777981794,0.313350620743369,-0.12087414298783734,0.13914706589918502,0.12183619882100638,0.3343924693026078,-0.6298059569927044,0.733461281017254,0.9493397964823984,0.8512494758198813,-0.6170193682230298,0.48139347154779255,-0.48657943980171114,-0.04008893685272154,0.1790821193121428,0.350752367678719,-0.5184639396040561,-0.2790482340043502,-0.7976266601920838,0.15535329193790437,-0.35670981148475006,-0.09057379423130563,-0.3769148499239916,0.05266519217972121,0.7366982458381964,0.8280241598698872,0.389476782097693,-0.8354435549186978,-0.05557175134065018,0.8837564218078777,-0.2981658042348989,0.9642943710116301,0.3434972333928169,0.6531625817805016,-0.33139319238043563,-0.0004259265578130389,-0.8935861935209872,-0.9299485853295701,0.7296518263286611,-0.4761851820921243,-0.754662993116656,-0.8747982781940951,-0.13430043090454014,0.37470989055715265,0.06509376444791705,-0.3307665803264186,0.693878410974746,-0.9410286038614344,0.8000551100978286]},{"bias":-0.0035977790928574116,"weights":[-1.0,0.3921399416340281,-0.9003567942820033,-0.4646887506417633,-0.042798938093934424,0.9256549584944911,0.6808102236615151,-0.1532179676127492,-0.5943413676689673,0.025031586329421707,-0.022136954420708385,-0.763031366410067,0.8982421416683604,-0.9016838302538059,0.4581677794557304,0.9877754974701691,-0.5849250547603791,-0.7755698183388553,-0.11062890641787856,0.9010729732767349,-0.27658636624929,0.023036055151818058,-0.9053484356465564,0.5883600959139036,-0.6131703683125864,-0.6303057029562549,-0.007858211947115112,0.762230024128616,0.8870611184438622,0.4282680290016019,-0.6124214087060746,-0.17487085524985777,-0.1161035869221342,0.9172957953927449,0.2503074905001892,-0.7172240990085155,-0.9950401420129096,0.984106904471461,-0.1279947378166857,0.04530639540569581,-0.8213191931782067,0.43958371087949377,0.0996344512837668,0.37590754504897106,-0.6759328855382407,-0.36520258556919183,0.8636939025273724,-0.12550264811896827,-0.09082094672165031,-0.07756638372628055,0.013198914372434256,-0.7434391644041747,0.9012349539544815,-0.027138259107423898,0.7778926684970329,-0.1408147145879184,0.939277826504861,0.7978134742092818,0.3083327419284507,-0.17466464937700021]},{"bias":-0.46774334024356995,"weights":[-0.11812207607311093,-0.9284708023085595,-0.998179809612443,0.6548468611737723,-0.1848340276394202,-0.6876154157483292,-0.17346099404111426,-0.8153893796379291,0.15217920719022793,0.5913263751519935,-0.8396625787498508,-0.2515309167227672,0.13023702798450598,-0.06081439207377004,0.4011970093253039,0.9981596639473717,-0.1666511091205325,-0.3899441782589032,-0.12765480001167734,0.1058895831417952,0.557826521299035,0.5870984447049931,0.6175604594457003,-0.8434548234338459,-0.19251428890459454,0.9250900718238166,-0.7826828076799373,0.8782715606502793,0.848068817779406,0.43923913503501694,0.8613023427947096,-0.1192101634643003,-0.09120432576852919,0.6083620268362079,0.5514088659963337,-0.826683906144052,0.5940154546606009,0.8074681818562235,0.39804842170576027,0.15492236387401964,0.8912256648668873,0.9104177771134848,-0.40526750378825804,-0.43131578724382924,-0.7238501480350186,0.818783713329355,0.023232529940210966,0.06428179381507926,-0.9623178806745163,-0.3889271547145179,-0.0629228570071318,-0.975345073118076,0.5458023949489954,-0.8222138224994056,-0.3954904594073384,0.2469550287246731,-0.6136929426565119,-0.7900971213130512,0.5985369263467604,0.5073553210858119]},{"bias":0.9886432134848323,"weights":[0.1786411315650924,-0.11239104398540611,-0.014833602273222724,0.0572768049868219,-0.9483688162915668,-0.3250972542060845,0.41438638089480095,-0.7394258733094823,0.7979194607767299,0.3398027946778848,-0.934433544500291,0.42335914827872545,-0.5482514651076161,0.4663612153849539,-0.7267855005414314,0.2257182103526274,-0.6035338012089613,0.629955250264564,0.010746503889563552,0.06924520472415141,-0.3303964802519934,-0.6177953299290379,0.1852253147297307,-0.5202754085798053,0.9400283546049035,0.4149986300595909,-0.40195687792020873,0.19931282935085992,0.4657306746622914,-0.8495305908912143,0.5177698466926395,0.612697815946261,0.7243280488934289,1.0,-0.36175828494330786,0.07550631112265724,0.653404443885909,-0.008156915371999425,-0.7455501843166012,0.7897803340963598,0.4983013343496734,0.05428638149347664,-0.45629330542803925,-0.027235632132655313,-0.6889894743629563,-0.6482088866788911,-0.7627115728273428,-0.9223905252345403,1.0,0.8265612417889674,0.7206236100093457,0.3326020296259129,-0.16117220053874867,0.25974817630108127,-0.25252814563820813,-0.8439957964916238,0.08222713382106628,-0.341881737677571,0.8573195012609647,0.9192165694051515]},{"bias":0.7073258245648303,"weights":[0.9682883858152189,-0.10712342732161893,-0.22604192086044916,0.5927260628678767,0.30238214619406245,0.34370340174833514,-0.31787330357529475,0.08497300700168164,0.6122665792624746,-0.95543929146007,0.8409608146509284,-0.7786605220538859,0.19262697726481864,-0.6868129994754457,-0.8353087759538687,0.7440751715627771,0.2760653565042047,-0.8450488144252635,0.8222115803626702,-0.23562941394510853,0.8025953632321761,0.9540371454305103,-0.2006526550835197,-0.25854831362323927,0.58757682012281,-0.09802519904484752,-0.14683007707228057,-0.4695522751360426,-0.10593153698880176,-0.22362648143981928,-0.1933634596311677,-0.030951152964190598,-0.2667726961623029,-0.5897113613445129,0.26870452538491274,-0.10449592880074965,-0.07451194173838765,0.2161647313156208,0.6155012272724005,-0.33101339077443326,0.03808693515993901,-0.8601477136998703,-0.35015194416417367,0.896529864462996,0.2414375953279002,-0.020808772869208347,-0.8228919918231803,-0.06819671034437272,0.5492391683042567,0.4839161799155336,0.5959755096914185,-0.1080881911227011,0.29773572332260356,-1.0,0.6601225791712819,-0.9525358850620699,0.9180510684242847,-0.312920000572965,-0.4573649422328397,0.6564814133821435]},{"bias":0.7272451115474574,"weights":[-0.7434981786428012,0.90460751346814,-0.6389184838500014,-0.45507484152632705,-0.40450231190113206,-0.4151182818684179,0.3565914335272513,-0.5860328477366576,0.04626053673338859,-0.5703236808617769,-0.3038357909439344,0.615816593765337,-0.25545620544321335,0.6844332847112309,-0.6708817643912699,0.28206984070931584,-0.0725482656851464,0.7219746919068046,0.01386368183892861,-0.7329843037501853,0.6209719295962706,-0.7648720800891007,0.7947735283124231,0.45047678824098825,-0.1944650134234705,-0.8415872886118633,-0.9517172365463553,0.23350878532089014,0.9284752064491376,-0.2827475201983849,0.9498112854022182,0.32875767304989484,-0.48302349698311436,0.7509609984461445,-0.5769041878781841,-0.1825003204076121,-0.6411203806132904,0.4847126318591042,0.16816198725494047,0.15272212620114672,-0.510534339798193,-0.310694409300924,0.8251790062085466,0.6299874537852932,-0.6433955738335242,0.5247952048035902,0.7929037888860219,-0.33223747644179186,-0.4876995334574735,0.46407624433742956,0.8533049398603223,0.44129284137935487,-0.14280255089691263,0.8110053563193469,1.0,0.7155822947285926,-0.365148759797322,-0.3979974820660266,0.8450181376820574,0.8428694545511619]},{"bias":-0.7383779884795341,"weights":[-0.6674686457332191,-0.34623082637143665,0.5846740325123329,-0.2536027835151926,-0.8792924842653749,-0.09266607377190833,0.8841453857320967,0.5281180087850063,0.6843169208584936,-0.5153164956749343,-0.8462439112122312,0.6153539434856685,-0.4692345142176526,0.6458169712473376,0.8302101075968431,-0.6389450639564695,-1.0,-0.5359605125858216,0.2612924738598661,-0.24789476785501185,-0.5121373437707231,-0.818729747998145,-0.8913833992543599,-0.14817051496944428,0.14227065971761882,0.9285352934246688,0.939871911656764,0.26827860192846575,-0.2734244288937946,0.7523236004552485,0.8992269243463737,-0.7278670347935576,0.09376263493834713,-0.03956679652826939,-0.00972910465779759,0.2000587316540483,-0.09159470471598978,-0.36978927329083877,0.42209190079191483,-0.45466912922505687,0.5278052787522345,-0.3516679712467021,-0.8728851186992621,0.6794428706075347,-0.32336623309946966,0.5125609075306619,0.44651440359323114,0.24687933072099227,0.3457404008205027,-0.052278512948082084,-0.8551608935247774,-0.8395152121255447,-0.8341904520934972,-0.5702144734020034,0.7086337795879687,0.5246219411278776,-1.0,0.6036022184079535,-0.8444634320813809,0.47539294544853705]},{"bias":0.832185491470781,"weights":[0.10881696791404152,0.6847317652806078,-0.6048622440912758,0.9371203403052353,-0.8751051476815355,0.11719432440494103,0.537717534822264,0.3583387554447231,-0.5416248637278374,0.7836508304488259,0.6835668971471098,-0.7250373123874421,0.49745277750046535,0.5639817090758559,-0.9790811729732739,-0.2893293106582325,0.5818096083209263,-0.5659542317512178,0.5703295413406098,-0.5847349341366469,-0.1646120270831508,-0.5890491215671309,0.27154434490106993,-0.10196402217087419,-0.4586091689258063,-0.4853894326992405,0.07960029522673118,0.8716622780286227,-0.9113192673366273,0.9137612850975042,0.3461072103353575,-0.009998796356164519,-0.933811064689317,-0.32897799026566865,0.5713743867928466,0.271503772055793,0.9565858989356224,-0.9008941265297774,-0.7950534652873062,0.8149499784521063,-0.9410198555297842,-0.6000441963303732,-0.09536252356966868,0.20499252739231233,0.6496038700471267,-0.12779058267653026,-0.01286401578070566,-0.9504100687164851,-0.2645261983653411,0.4236768301323477,0.9287571237911633,-0.7833546454094087,0.2965088515067196,-0.13103625621178414,0.17705655990741187,0.6213731191451253,-0.9340123202339132,-0.414604230761528,0.7514451391107024,-0.798632060624758]},{"bias":-0.7512164086389204,"weights":[-0.8102188050838055,-0.7753645770296096,-0.48013615070570825,-0.10041346294471816,-0.8980707072308816,0.6774390692738066,-0.6360180779878757,1.0,-0.15420772443717254,-0.9762938049008567,-0.7170188172948055,0.7844193231996255,0.4501731418657835,-0.26307434060099266,0.7883114466350123,0.06626596010671021,-0.1464556463792026,-0.09569758151571195,0.20267330032375908,0.5260262571494296,-0.49146909215155343,-0.5975134166906684,-0.7017901049974089,0.49204264672025566,-0.6160628506545747,-0.012595232267649054,0.28618244059045406,0.936309404691372,0.8435150036810853,-0.5351845792316046,-0.08700691671222707,0.6355367479892755,-0.4556432094289538,0.30796639939345627,0.6766862233082929,-0.5955975100558788,-0.8442237670791567,-0.9812324341350543,-0.883861643973638,0.9130352682453804,0.2855973981924888,-0.49248547346600374,0.08945948285400274,-0.8054399964563688,0.6124997576295059,-0.5056042023846805,0.15738343507928265,0.34921003531266925,0.1918741561601136,-0.1690251059450283,-0.7207887431447091,0.9727644620932707,-0.8899616364550036,1.0,0.7674874504910996,-0.4463244696133445,-0.7221670248513029,-0.4881934894145733,-0.5112949542338375,1.0]},{"bias":-0.47257920915939444,"weights":[-0.8222748531419356,-0.34747860577431,0.13524422661988522,0.7026789456358493,0.6553726840091536,0.2807281936889292,0.539963625423816,0.7191776689267443,-0.15873958266943022,-0.006861689666648019,-0.7285784749933639,0.13174422121726853,-0.8505258042227002,0.07160560462619804,-0.7226526884568251,0.10001139209729491,-0.3981547322611966,0.5593632530551003,0.9115818804020148,-0.24220728925568968,0.7212450537816066,-0.9913050377040622,0.04928116722029717,-0.37425977511976616,-0.19758330921853284,-0.720896687554755,-0.3875035652002694,0.9314118842934529,0.22847727468692772,-0.2606522869670682,0.4422330701240518,-0.4836463500888377,-0.8369741978717443,1.0,-0.7488052471377298,-0.767272801301381,-0.32257794941078677,-0.7072091831771542,-0.13473791420754672,0.572735258563791,-0.39497926698681013,0.6242911253604073,0.613616619398814,-0.30879393130300503,0.12058164213275635,-0.47041390481692485,0.44052752030336073,0.0716906273733029,-0.8580920011378792,0.8895665899500438,0.4454689448870579,0.7067383039001127,0.01658510925402948,-0.10118798151611842,-0.2524934635537117,-0.12083834110264173,-0.6406677008793464,-0.3909380719170015,0.05965646411842003,0.32772826994711535]},{"bias":-0.27724536119003673,"weights":[-0.8705969007295662,0.9238819412563704,-0.1565749829075292,-0.5476185782411297,0.4241755852722411,0.33317414979779897,0.8830141685616443,0.10145757520150556,-0.9193631103991069,0.854236881462104,0.22441606839332418,0.897574467862913,-0.09540548414280048,-0.3193187921190743,0.9078986321119249,0.547005131502003,-0.3287757510396895,0.6147636096229081,-0.301046186377806,0.8221644061121562,0.7647911210672321,0.14607779735309648,0.461743095042249,-0.9281635510849296,0.1858302218954173,0.261888260783695,-0.9129550740006493,0.004354785146630125,-0.8439301806256001,-0.9936455879180972,0.6026020750406818,-0.4826864491630034,0.14005444777868664,-0.15566323229592882,0.8790474092402063,0.28696016784224065,-0.6633152763848624,-0.42864030795808583,0.27293505196420303,0.2515022397822033,0.5499916931261524,-0.775867584644482,-0.935857447071631,-0.4253237995289427,0.8958179866695195,-0.31037896782422747,0.07674106523505708,0.7161547395738022,-0.24126137741743692,-0.6277899744317295,-0.38166846550710964,-0.13792925574047188,0.07381128788700675,-0.5475284785349519,0.6807427865796519,0.3382649954819934,0.3226172263763516,-0.4272056913227919,-0.6703683667780306,0.7430655528396914]},{"bias":0.2816420040998797,"weights":[-0.5636152911689051,0.6199237513461117,0.5279826980902995,0.8809076721621536,-0.7641906953152166,0.53798828458772,-0.12221256709542237,0.12755978217522954,-0.34068329339422776,-0.5783739165063528,0.0024141365555209876,0.3458173454495155,0.3637284549970714,0.5147207150951543,0.9347340862301476,0.9385856790375764,0.7223402562674536,0.8165874865867071,0.1381282252772862,-0.03909681722271417,0.09812489730786518,0.31353378217828615,-0.500581529280077,0.43442982622532966,0.9813833937117642,0.41040674505067143,0.7222090758478101,-0.3026556087694322,-0.7604775778952766,0.9056281075996786,-0.3669130320381555,0.4204496374212492,0.10257569584850136,-0.2599691578380292,-0.8837355705822584,0.5867666769355192,-0.6595437148508339,-0.4063051714493029,-0.8795258652567471,0.012221842303406283,-0.07182034622578426,-0.644455990451779,0.6589446486918891,0.018788782103089208,-0.3098927534261393,0.44674998956232326,-0.33294974113781306,0.2507172214945248,0.1333900508163679,0.08988986003608014,0.5199678080270245,-0.7272752732746994,0.9490524384779819,0.07677032266652972,-0.510385501162041,-0.029135451652268607,0.2811107916615576,-0.4738860821373647,0.802746573540143,0.017951426211404067]},{"bias":0.39139258927607923,"weights":[0.03616417859957813,0.2357559695086834,0.42904577116008236,-0.962832141258092,0.1939836005458595,-0.19714451065219762,0.9430279146532136,0.7954118145260041,-0.2136197470744477,0.8540104566651059,0.1337264336305431,-0.09474991197235366,-0.4134018866118532,-0.2703337443299055,0.5972004555351118,-0.5930222597152915,-0.6061117720186666,0.24769139989103817,0.7187828845474138,0.0910442734832513,0.41608682763875376,-0.5004676914429546,0.410214118886961,-0.5047253461341663,0.4815322065729073,0.8159066451847834,-0.6860822176310665,0.07390678333567205,-0.8166751810934483,-0.9965099832852432,-1.0,0.25068781978784216,0.7020040610116529,0.02921295272151836,-0.9760112648306652,0.7116119898432358,-0.18115859468864437,0.9276938239197183,0.7410903586325386,0.5106232272188267,-0.7591056803182852,0.2630816561070282,-0.43525570140919667,-0.021612068740109413,-0.7688023018423059,0.47601897043041735,0.6473506275499099,1.0,-0.8792842951562228,-0.35925931711251535,0.5974037319540011,0.5084001891028109,-0.05933041579158527,0.019357072248791685,0.7744804625526759,0.12630566548717864,0.5061815426234537,0.7519280727410715,0.7587713483575728,0.21656615478751493]},{"bias":0.394886728311318,"weights":[0.3759314963744824,-0.15822406095689207,-0.7336256272531017,-0.913768600649504,-0.5240924026331648,0.47060577431884193,0.07016264990208569,-0.5473108503716472,-0.4767145373816497,-0.8260389085473843,-0.3239829569941418,0.23250940744065246,-0.7764160220896381,0.07740189519574145,0.16605160765031046,0.8830796492354221,-0.9252498062208265,-0.30436745016160466,0.966282267394388,0.42093695190640723,0.10453339655895784,-0.5985337239968956,-0.2284632332004084,-0.18415041151763,-0.7294458748405979,-0.5350608912920265,-0.35211230502361035,0.34352793006079896,-0.6451566359591507,-1.0,-1.0,-0.7224642130725585,-0.6522447328535272,0.24835115587871548,-0.7965970446689138,0.32793261214397745,0.18237182522304005,0.961934909435168,1.0,-0.151209524078893,-0.32294463785406524,0.8698756978809365,-0.44545823796648665,-0.9138326844066843,-0.8492886822197818,-0.5148287080161729,0.582131057092055,0.9971061591385095,-0.43729978541309983,0.17057018668700522,0.7756717458261813,0.28211442936753706,0.3907186769631578,0.7460340641225447,0.026676047979993456,-0.6563780586460117,0.7039646302852951,0.8693615543938689,0.623068799608284,-0.3286796316245488]},{"bias":0.29640757015775493,"weights":[0.13843802817118966,0.15509808750484666,-0.9506648192842575,-0.671272633723806,-0.7582545259619349,-0.6128394946458413,0.03624052761335639,-0.024085321994255615,-0.21566147426800608,0.4706810441338724,0.6451844647609208,0.6875553883575756,0.9284614450296353,-0.1354440523438066,-0.7374729238049471,0.4380079243699493,-0.929444770257891,-0.33752438717663985,-0.3791931154053252,-0.296925839096666,0.5377387970860901,-0.2030935685032058,-0.04309318970014363,0.6028490602991353,-0.17534561163426998,0.8412739341262148,-0.20202912327288278,0.5590208577538411,0.02809980303096432,0.6508364179184425,0.9663745644539874,-0.7529817407754447,0.9877850641276676,-0.00208344141648098,-0.7756469827663264,0.5807900233359282,-0.5650184604315494,-0.9936798878283409,-0.7420648485183602,0.9164404300049921,-0.46406836092044945,0.868888374210862,0.4878117297345401,-0.6460306516094545,0.5332340314303949,0.08480775993834788,0.7575992513283414,0.13880756468324262,-0.6665179919231816,-0.24474638547098015,-0.019124950371503857,0.7529996176469562,0.6124128616900715,-0.048798951152715375,-0.8331705967828062,-0.16559697242153515,0.47460068402002475,0.24526573314467018,-0.42000459595940864,0.4126881031590093]},{"bias":-0.21888108915161553,"weights":[-0.6703020443198331,0.16968526025265301,0.04226799864045376,-0.7813707311921998,-0.6143798296845571,-0.4395459519209495,0.15673327622788563,0.3666072977597475,0.38977479944488386,0.7058204425586707,-0.06807218396569457,-0.8735253230015029,0.7125663723857989,0.13698377993974553,0.46841680538562036,-0.30666072834710567,-0.08001340246301991,-0.7350720345009655,-0.8976902801734368,-1.0,0.7194677777436373,0.25574543798170524,0.3210240320508946,0.08622455858584521,0.8310794799097088,0.4924964619543557,-0.5550351576613851,-0.9270019360827506,-0.576848452637448,0.4635186513613574,0.7511184241621996,-0.5482086329269952,-0.11264032356096897,0.8960221348729024,-0.8621166074361593,-0.30791394793960425,0.011508443251586911,-0.5754432929777819,0.9387860376502997,0.4501524776510637,-0.4254490831082447,0.1146250443455475,0.1410984870180072,-0.07319237240514331,0.7120066462528628,-0.08067044002517365,0.0511264790970426,0.799499331900829,1.0,-0.38098600386736425,-0.3226967604425742,-0.24166300718564004,0.8548239420574202,-0.29906603937901943,0.7451270511371091,0.8529923247092164,0.8336043793956267,-0.6540652015539999,0.49453879703266335,0.44000584506294427]},{"bias":-0.39213999346264816,"weights":[0.2335003871729186,-0.7312619127998421,-0.6525088666684119,-0.795498004926467,-0.8345821643098881,-0.3719197573991637,-0.3136414624765311,0.14762696687296512,-0.7266847803258338,-0.6129373112484027,0.48286656849978193,-0.35703914998606523,0.36992088380139343,-0.7291722182805209,-0.048308581731650424,-0.17151106270088334,0.7860659435165905,-0.45084763665674393,0.740239414585408,-0.14364695023170904,0.5914935902564279,0.638767715809236,0.1533010936250137,-0.3837326651773929,0.5906312174673976,-0.3252884739488775,-1.0,0.08053938662599588,0.7512747942555484,-0.9570221783711532,0.9748548374233508,0.22149308776235746,0.01841886234386525,-0.6969959605249687,0.5412970829759876,0.49701343346937543,-0.3877313129015354,0.895723608970675,0.7042869305321535,-0.19858743177726845,0.8647581950648233,0.8691860536856477,-0.0155567984586691,0.02238140287102075,0.13980457605132424,0.8931070535059886,0.9608991781239508,0.6979424566821426,-0.08054210105570031,-0.6779705007606684,-0.04770176198829551,-0.9649760981302071,-0.6527902968827437,-0.7450542180400448,1.0,0.24190028269548813,0.70975059802225,0.366080824274015,-0.2976121605513013,0.3036802052022267]},{"bias":-0.8593832391359176,"weights":[0.6766643654652684,0.09415922883621786,-0.5451617894470041,0.5174322194543302,-0.9882332437997103,0.11515950400448238,0.2509245486430074,0.953592051700721,-0.4341219576762376,0.4055443223058499,0.36391453230733006,-0.7699594072917874,-0.44964070203756146,0.03076577678170045,-0.09974854757897322,0.2395004497367208,-0.4389794023307223,0.27124830788705045,0.8382886929777205,-0.3580428519543824,0.3950829241906777,-0.002405628704851101,0.13560316372586323,0.9070639181299174,0.5781003354857122,0.5963042539626424,-0.6804494683424954,-0.24682647605097952,0.9450936667151968,-0.0782110004856782,-0.7990360859883403,0.42617723763221393,-0.37637962188765234,-0.46419360841518315,-0.3822082048589225,-0.48660224333106716,-0.794941142304868,-0.14207440887145317,0.3345552847867852,0.5579406148247146,0.492841412224438,-0.007344807947371468,0.7098964451990439,-0.619786581639497,0.6399051612329406,-0.9400636140655889,-0.40643155025198086,-0.6920308657585409,0.7133155597112879,-0.49219061942092573,-0.9399686572934084,0.18787801238426716,-0.7021825126838274,-0.5066704237750832,-0.8658193683588634,0.9761378744923169,0.9152613383511046,-0.5407820415402997,0.9225529051285166,-0.27396760879802623]},{"bias":-0.993263257998128,"weights":[-0.30380796672317745,0.7114564175044993,0.1811975600107285,0.04291771498390551,0.2459336556322617,-0.09502186862125628,0.7312527017855528,0.34119329437453194,0.12028671468508678,0.6675673084211438,0.6821773232008619,-0.6725786745555795,-0.6408428365683654,-0.9384304051060384,-0.35919009553685355,0.543000022260506,-0.9504104778841853,0.6427030996188474,0.40700468890491415,0.45325747332104127,-0.17147560150309493,-1.0,-0.8045719590295781,0.10261695042032093,-0.5527613304851773,0.460529825215961,-0.19925862188687657,-0.013861089599340737,-0.15837584603642446,0.2632876378010526,0.6284967432309094,0.6236672376201171,-0.2062312452469523,0.32596557441020413,-0.8320612609837221,0.39444395103521357,-0.08727555023038136,-0.5798428514816991,0.02636526565787989,-0.7908408183906677,-0.5599120816690881,-0.15177421347174724,-0.6879753031174148,0.4734742875972997,-0.2083664862114886,-0.3860382364302719,0.11266475903074319,0.654538500892428,0.8865770175478203,0.363159180144383,0.9687482009557153,0.29920738182601836,0.8987702255075375,0.2910548914446789,0.6693705741679749,0.6920499912609217,0.8618693085619619,0.3281253553353638,0.24961366011148423,-0.15776453176979544]},{"bias":0.3261098944601919,"weights":[-0.8165359714842748,-0.04797579907231138,0.7347131233188193,0.6383555863866728,0.34661062507958645,-0.7162987693579899,0.8761597234627597,-0.40105654011208636,0.7125069497744211,-0.0156779275119221,0.08936631743190851,0.4134823185034565,-0.27589852013758337,0.1374498286598418,0.4633286889304369,0.7546445135458519,-0.41748228695429784,0.4852958868582207,-0.23423620601940626,-0.5228452869553188,0.7189019774846223,-0.3017649079698388,-0.16193448256516135,-0.727644524237304,0.9310847741441552,-0.9257509061766097,0.5173138219869209,-1.0,-0.8651549900141302,0.0647163932862795,0.600408316200701,0.4131411813577597,-0.21310931539846,0.9031997947076852,0.19366272126933204,-0.8803984949578805,0.5957820729691807,0.15670599702963045,-0.6303603584757989,0.9303455699097647,-0.42023726059104605,0.702200698186846,0.6542848503549177,0.049543750535345765,0.015275082868486667,-0.9697045358249712,0.23932617675125809,-0.301734011698056,0.888153622512355,0.3672498564071697,0.6760591894696288,-0.029707296445247403,-0.8462883842606467,0.15723106654410857,0.1621270531652017,0.04326347566742994,0.9916798791103618,0.811843342960309,-0.017896847246519965,0.875628162044785]},{"bias":0.29670135121587565,"weights":[0.7817669519256505,-0.3524615871382739,0.37887363930067597,0.252647582442754,0.36263225662762544,-0.9278634241559587,0.6198746535586788,0.7799516536630242,0.2837775917172408,0.9720681318759925,-0.5704169385201254,0.6636622886411794,-0.8872078613161983,0.9476451920231819,0.6141033748131222,-0.35626894154106914,0.7604566872276304,0.7152617035311453,0.5941472624226104,0.5241215428729354,0.5423714002956483,-0.4522228832254157,-0.32296537612088905,0.8274147861864845,0.3954315373853228,0.6871062220016311,0.3860035740252915,-0.33477970133723955,-0.04202192823320727,-0.13381706482576705,0.42618046303047175,0.6586630025398903,-0.8804416181468517,0.8729241934651055,0.2981561473795584,-0.06821534728278196,-0.678989846137938,0.9089854940359046,0.844238422449487,0.6616482680051687,0.10402305531655909,0.9858872458561057,0.3117696723873604,-0.4510860221186608,-0.8245525435598098,0.41554274711697303,-0.12498800165232993,-0.9630702288121133,0.13644162940520038,-0.9568788572242116,-0.5277996128393508,-0.8174315084206099,-0.8940402595591228,-0.19818984578092622,0.9251002237579811,0.6417928796111376,-0.7045875786428999,0.9587623788636548,-0.44077021765884483,-0.3858840080387371]},{"bias":0.7833266793006732,"weights":[-0.09981831546517875,-0.5393699235275289,0.734796695276204,0.10248544312806729,-0.22857753736991304,-0.546277854081285,0.5737734873889537,0.242043899873574,-0.35918421440292697,0.10135242611020434,0.2690431361986021,-0.9657842199630711,0.739731044767933,0.9080344674537391,0.2668158994260752,0.3624021744082193,0.38555452585575756,0.541245280624568,0.14505560739728127,-0.8758364602692419,0.8845177288154804,0.20659998395586676,0.6408178459336655,0.18228051700069237,-0.019626821077469422,0.6116953931858604,-0.3288519621140966,0.42237695202665326,-0.34821044360489023,-0.26049979256170125,-0.9428407108354699,0.2833349891441066,-0.8625700624855321,0.06304250322536833,-0.9394512923413542,-0.6771806065238528,0.17512436465484857,-0.429055950649047,-0.3608786862407838,-0.9684658274977513,0.9683294714953018,-0.8180493897904708,-0.6251159422944005,0.17858187050280971,-0.4169436036652763,0.10214478870391402,0.8171116743563909,-1.0,0.3189426564284088,-0.5878387142837109,0.4715542994771833,0.7172035816185396,-0.029168652807828988,0.02459034278581476,0.9218884971208188,-0.9748800792398435,-0.5196281810928837,0.2144494788538252,0.8218209183918584,-0.5540661813872217]},{"bias":-0.13723935777151763,"weights":[-0.9086511569035776,0.2978717772640065,-0.536958642470216,-0.6181494882054945,0.6078857221320884,-0.4714151616667558,-0.18290329359416643,-0.09298372295431602,-0.3954637520832873,0.8304990390995973,-0.45107137731117375,-0.9241558039207654,-0.3236681466765958,0.7117489197475217,-0.5049514283276334,-0.8981049615439207,0.8023275711152049,0.6733142311958638,-0.25298669271139396,0.8292360014312483,-0.1956666288414164,0.9272995815453556,-0.8334795281107138,-0.24726950225884936,0.3096017955270227,0.8899129820689216,0.7339185947327839,1.0,0.7551180295304336,0.6551673482367818,-0.18565803618450416,-0.6250363679386515,0.5042653077586249,-0.41908859077136174,0.22476588185954222,0.4217341888793378,0.49363668341767264,-0.6019919489010868,0.33516361217807866,0.9395319303447605,-0.6377506336870642,0.672063397597185,-0.2539461034068071,0.2892700518937219,-0.6384827512220496,0.6750882214331106,-0.6278711693834103,0.8421692997011011,-0.2277455395779756,-0.034462070363460384,-0.1962293130510102,0.3431376612633419,-0.4594728047088692,0.9738669951940371,-0.31037861214174445,0.2972865249485568,-0.17511321468765767,0.6923459103868685,0.43546458414961364,-0.015867796160603603]},{"bias":-0.9306171816009359,"weights":[0.056612444780896,0.33262478280694374,0.7966496844743238,0.20227047854554092,-0.20778570576421376,0.9510984230830508,-0.31229805091744334,0.8316970844343912,-0.07304811137281143,-0.09589451940865404,-0.7769463626289086,0.6747966946929052,-0.6353489747416123,0.029244076120950258,-0.4339474027812673,-0.19839012569669653,0.17643824964121446,-0.7568865624603356,-0.49285056864227983,-0.7071313828724568,-0.3548497619728792,-0.6650543388453666,-0.3739988857740748,-0.47463333987555467,-0.946570656525791,-0.09453648855943722,0.9076311044124123,0.929662717209241,-0.7015584631246736,-0.6692869655780807,0.26778289789571597,0.07209557074276658,0.22750325215042294,0.6152420878205318,-0.9681954216125485,0.3928534957965848,0.18881139417283843,0.5142084929921865,0.7499458249852609,0.8708227498738355,1.0,0.19843517855751536,0.8748065835242649,0.29210030686720234,-0.9361133858093886,0.35271047356038093,-0.38674033884121295,0.8830255909179696,0.7680773904467202,-0.18977234810107113,-0.5410699284062552,0.6063482163730847,-0.7498890085721044,-0.6151001237124958,0.45359345970565257,0.7910524384565351,-0.7288457687836367,0.11931410781765689,0.4862231390991285,0.5855543181415229]},{"bias":-0.16809329939844364,"weights":[-0.856547135225485,0.20242320632444288,-0.7707150765477522,0.624082202264693,0.8410150115984538,-0.5358786497084074,-0.8015871662650689,0.5837442763186872,0.4111261507799387,0.3982051431462734,0.7619341364056167,-0.5670359185115585,1.0,-0.12890567262796726,0.7036963948039601,0.9807610443421342,-0.22054981530735862,-0.7593486742877005,-0.9642082601017052,0.8437422721498256,-0.6743204608208883,-0.161618942567467,0.1719280715743121,-0.8783928046506593,-0.28316923823942064,-0.03796992027487649,-0.233787566718487,-0.39232998526284124,-0.9659542335058648,-0.019792060322314953,-0.8268212007020064,0.15223910462804424,-0.5254447099471333,-0.6395778121085578,0.4425883298976987,0.27107536390593223,-0.4662604037232914,0.8282137798264881,-0.07210353937683664,0.7581144878532537,-0.324179699452654,0.17596563178302177,0.14118839895357693,-0.598748747554414,-0.26327101167481837,0.5424722234823627,0.7558376486437316,0.8900259861306585,0.2884597585921052,-0.7777038739662067,-0.14274033011271925,-0.38994623398757733,0.4202994151335595,-0.940853013322359,0.7240192019395626,-0.46899923945055627,-0.934384571327803,0.005137678841260485,0.1570629918524169,0.8979650899663449]},{"bias":-0.7934937497696275,"weights":[0.7467947081065964,-0.20878414335351508,-0.09854261423172428,-0.23981428344778571,0.37513948906058436,-0.10443605755002716,-0.2778732734239902,0.025809859076103336,0.9488430330163372,-0.6485700936768753,-0.7642375946348678,-0.13917672413768223,-0.14851731827877276,0.5485091625843628,-0.5448181023220502,0.6660357348920147,-0.38455055903151014,0.47320996546025823,0.2753032490052195,-0.8245634235528778,-0.41742914554404864,0.4232159802760411,-0.7879602085515162,0.5129359906093587,0.030431008461109244,-0.509149848060724,0.17798475974054756,-0.20275328144669305,-0.6738963714556712,0.19722103190679427,-0.39999772753813234,-0.1845426284797984,0.5501749257852357,-0.17600007534859446,0.5209017791889345,0.2352190432704746,0.6009974350409496,-0.7485313319856668,0.3901292025783061,0.11004572280565184,0.3769811539574825,-0.144472551851619,0.7205468557378594,-0.9736703024437658,-0.3162404284285092,0.4705044360864259,0.3290152179709347,-0.06405301603240288,0.7228269892394752,-0.46789131862815925,-0.3287661980872789,0.3137810385901525,-0.8778525238451289,0.06126164369658922,0.7212175757919662,0.5812603433670136,-0.8693020610254565,-0.30475815714655496,0.5324677632314391,0.03162807935245347]},{"bias":0.08469660578733462,"weights":[-0.892791749190966,0.18544172612377352,-0.6459938215346169,-0.38145262524951473,-0.9344412867221359,-0.26043693575945914,-0.9666524184846028,0.041555887575726605,0.8061394722498849,0.49594771818939876,0.3217190017016107,0.4259684533726967,-0.9838801596858535,-0.5533879390547359,0.5354435867322414,-0.6847138339273924,-0.6263545347337081,0.14966522605405252,0.4446710573299613,0.42138638148414675,-0.1509661334146259,0.68885535051164,-0.13996340361191661,-0.6329855170587044,-0.7443344823597249,-0.14302173880998442,-0.4473551933752963,0.43451697629470987,0.5880573316994697,0.5802103288128677,-0.05884784836686151,0.6373704699799858,-0.0919879896067888,0.7282297923177738,-0.36102888750958506,-0.9875717120128544,0.6033757360153313,-0.22709503807840736,-1.0,-0.32869428741091555,0.20675917315050427,-0.5968993953993698,0.26959448279194237,-0.991644602012799,-0.31613547946822607,0.6534526184324102,0.024301531235510154,-0.5547708564144148,0.15799870357578513,0.09600527563105743,0.39367603498516335,-0.903160278978649,-0.5525005298175767,0.8203912380800129,0.15499793810480833,-0.7843408894669028,0.9609405071944483,-0.5895518371573136,0.5983668648358172,0.022357699224711293]},{"bias":-0.1383779925474875,"weights":[-0.4235993161086684,0.6053815664491976,-0.6468439652035727,0.2847071976371529,-0.14869759431347607,-0.12165966942641025,0.2723892252995399,0.7646355181472875,-0.30439071321120953,-0.5850573202288736,-0.18488611974845748,-0.5554168557168269,0.13707337589713997,0.1523635094474236,0.5208333505925995,-1.0,0.5017772538180005,-0.8178485838850609,-0.3659535543602638,0.4552775934507488,0.9823877867600319,-0.7442459532409115,0.9686251203563487,0.5403021588145149,-0.9054491352753486,-0.06711931429743911,-0.09307143551865638,-0.2538778014327223,0.6756917407478471,-0.7684746158266249,-1.0,-0.6180145312902858,0.9526636673095297,-0.13036419673011987,0.5973638597014133,-0.8031849981091432,-0.5031498847206537,-0.7639132638632753,-0.9146791763151545,-0.034453060770012284,-0.02044266623152513,-0.029164751130679283,0.10030340614135635,-0.913629147572344,-0.6476145749342883,-0.6368786802012969,0.535388117432916,0.7403058591340352,-0.1271691765267926,0.4508694497242627,-0.06571294340411944,-0.07683211380462002,0.5008341460064338,-0.7829245654291994,0.6872803272645329,-0.9278380982844392,-0.8464732094659366,0.5677139232184979,0.4712308953950042,0.3388471500726884]},{"bias":0.3659453245264559,"weights":[-0.5003822489975622,0.7518944102253399,-0.6024670811692729,-0.8025681420976363,0.20835619584784038,0.9388341946985133,-0.5673289268799016,0.21211081127361764,-0.7850607620476244,0.34432908671733475,-0.812265632199745,-0.6537002113011755,-0.16470026544135896,-0.5343578773507053,0.12711685183448135,-0.9288003879812494,-0.43526618125395444,0.3905791564078156,-0.6317701568947904,-0.7321514427142408,-0.354597478939349,0.6584205266625827,-0.060118427883043335,0.35664682838879713,0.07711125899678306,-0.7887932780100219,1.0,0.808854592400786,0.9249604070302024,0.5380755334381999,-0.9634453804290528,-0.3884900586202971,0.1308823090812795,0.19729952304563536,-0.5313634692806808,-0.398925313044705,0.7846022095279191,-0.48199766699658664,0.19080878493830467,0.05297356198729901,0.3548765460408192,0.6873397035528869,0.4376320763111077,-0.9527109312482267,0.7407860463134381,-0.1803975492789478,-0.4588523661686965,0.4567437181399677,0.9185186432529844,0.8507899959301929,0.10306614731899993,-0.7788486485802388,-0.8984035184121151,-0.43706307416233225,-0.40826146796184126,-0.08256061296970983,0.41288057052212146,0.7564635948587122,-0.02826529658986665,-0.22195916255651232]},{"bias":-0.28407344225714576,"weights":[-0.44053984041880506,-0.13799063757027194,-0.6775439051427963,0.9091051372021579,0.9079194872705268,0.1147947422704787,-0.42881043975159466,-0.9324419382561623,0.3437625233402395,-0.8024136209174103,-0.5194326706608159,-0.9287558267284134,-0.6947860805182193,0.8616994961099291,-0.04141328145068368,-0.09295825982080536,-0.7928351815663292,-0.29783904661872285,-0.9744730972638851,-0.24531557672210108,-0.5254219266412467,0.8227382544016789,-0.19530572589874584,-0.7517363325894939,0.7489535551162365,0.8676378953254268,-0.5347517895993152,0.6340892986177171,-0.11188379242511726,0.5947375098121308,-1.0,-1.0,-0.4279253118829085,-0.6241135532727289,0.025368835272952903,-0.6863945984261481,-0.4970044603119901,0.08068771015338085,-0.951915652876119,-0.1277089712586108,-0.17118375757034637,-0.3780887400464006,-0.36984547446972216,0.9560056892550377,-0.7911176701438976,0.6027381001289096,0.35115736250818425,0.8921213049323393,-0.3757402092126126,-0.953797263637536,0.9971216163851904,-0.2928211066431934,0.6336513793052776,-0.7650858956346642,0.8532905668173548,-0.6488654699243108,0.07041011060525726,0.3322356199966691,-0.07285044472133251,-0.6850917635387344]},{"bias":-0.4872865189406066,"weights":[-0.6232642184496497,-0.3662535070798792,-0.8122171594770254,0.8455247970904046,-0.6911726768541979,-0.22968875022610452,-0.5811509219826831,0.04413266286270767,0.16874109510572405,-0.11652106964383835,-0.6116321145685831,0.7164835856477992,-0.46593425019365875,0.22165203654669557,-1.0,-0.8126367485550001,-0.540262359392275,-0.34940694547252443,0.8681123605677183,-0.2443040699506725,-0.1919674326251819,0.31046548311644306,-0.7899301054331231,0.41578741565243604,0.03288800679890125,0.1845425440807631,-0.11659887265288016,-0.9463267087392803,0.22240263817685424,0.7558297927522499,0.4410037661305196,0.1527883160308785,-0.893683331594088,0.5521495334103537,0.34313651389948396,-0.12819617275491568,0.27048655652881815,0.3551035404712799,-0.6130241520958006,-0.40960802864164103,-0.2682777470967529,0.2901370611845375,0.729522864544165,-0.9596854516852613,-0.5057023000686153,-0.3016682468260332,0.28228089166686055,0.7905995937226556,-0.5985502938844823,-0.10188143131598881,-0.5111698132652496,-0.48232422631432303,0.1225041953976993,0.8459886248391735,-0.15056368513711849,0.9704366059282772,0.3360892409795624,0.4488144645017204,0.345510303488423,-0.4299990888436426]},{"bias":0.5841343743112366,"weights":[0.9947819945443048,0.4993912167904493,0.0593425848360174,0.024620992471390934,0.32130230287552475,0.6901842573497868,0.6402042483915857,0.1753426342163446,-0.8938260043207604,0.8263555364124896,-0.40542553014363625,0.5713034714571322,-0.7192830986876779,0.970431326278312,0.23796486068326628,-0.005369065132454942,-0.7666051860236727,-0.08022667232607983,0.0006509431305681684,0.6214897902550027,-0.5821539450487875,-0.11958680212759511,-0.7517705798121916,0.524757295828806,-0.10392921809506861,0.42458697370683685,0.7409420232049251,-0.364928266880295,-0.06354875112930997,0.5474659212739952,0.9984351902781355,0.149224809326939,0.0010919384218368577,-0.5604934384127467,0.34660042315426187,-0.5058100916400738,-0.7422607342832664,-0.843773702028273,0.5382839582847043,-0.3931605772372928,0.5398080172332899,-0.5483644257204707,-0.5871992416232699,-0.9737423642894978,0.7169695835923829,0.46195434581744976,-0.7963524518423268,-0.41689753504849714,-0.21127175400128395,0.9388428985202242,0.6656225194457885,-0.7564953574673243,0.0513343684046763,-0.6242799171751305,-0.6081803629166052,-0.9773956058089294,-0.8806145156138281,0.6155012892943712,0.7794313656803905,-0.2800166470970158]},{"bias":0.06226897330518376,"weights":[0.43024821276160763,0.022503431654479652,0.04060757660776085,-0.47347042184880156,-0.8724291835776081,1.0,0.7925903557069711,0.677264798250977,-0.6987030072178831,0.11823336079705316,0.12334876559405702,-0.8659457162446557,-0.4074873563551078,-0.08640198722083399,-0.5662826179074258,-0.25026659406069807,0.9516063811473675,0.602329219476931,0.48563424999603544,0.6592978951272732,0.6940587368779627,0.8271318527134599,-0.39811681643801444,0.38209514998271077,-0.3578061080264252,0.6819666418902375,0.6112438756038814,0.12448126414623761,0.13301126934214125,-0.2075728143807979,-0.04520748267083806,-1.0,0.1624849339190111,0.6708401990265145,0.9166300742072484,0.6562176873497902,0.43182832697408324,-0.6765759357588368,-0.9812407809971369,0.9259218339142774,0.583751149979689,-0.15869882118660167,0.24994727091854085,-0.260151133497309,0.6920949415798394,-0.6104154498535677,0.058073231206174025,0.8361808512175695,0.029738362687173225,0.31251803676849077,0.8980178649928297,-0.8773147988318802,-0.4209368574416721,-0.5365752949762996,0.26820036347131027,-0.5257616752062289,-0.2134489201766363,-0.8872285721308754,-0.00035195520072202335,-0.08466515252421436]},{"bias":-0.2909966492431195,"weights":[-0.07434871303823565,-0.9471929837644582,0.4430012822069457,0.38697450491196655,0.7286143120603212,0.5567382723830141,0.12590868141823375,0.9468911723689586,0.8771497000534514,-0.30259135532579673,0.26846320861320316,0.6288309576411438,0.5544529943582313,0.5025289355426705,0.2588545698590887,-0.6608443159254116,-0.2184547347770316,0.9880731455012652,0.9084767195568579,0.7443295402192012,-0.08405081726249064,-0.19367384173465574,-0.5093449323009108,0.4077892711007043,-0.226680505317392,-0.8134646505777573,-0.80709867374842,0.09644094843293027,-0.6566594933556548,-0.6773329232619925,0.59896256644672,0.47464558902487,0.7550761760062472,-0.04048247270179996,0.8461353676003363,-0.7496208688506192,0.6660686463715306,0.7391264343915958,-0.7360544214317443,-0.07420679164686161,0.5416673046441245,-0.7160469447670237,0.8125808194054575,-0.7546428007137314,0.3385456985994826,-0.69263586716683,0.8273148937275185,0.007602109125746548,-0.48761547610879724,-0.4742272464502788,-0.8862784148122389,-0.8982659880802779,-0.01278198202649472,0.3041280180759114,-0.44712860953765654,-0.2715314413844759,-1.0,-0.25677808677979175,-0.28188799337727904,-0.6181693152195415]},{"bias":0.8644126036350017,"weights":[0.058599167316689765,-0.5060257831136424,-0.6094121636518474,-0.8279703041924108,0.8979982992310975,-0.6166935397203143,-0.9512974919474133,0.5382272299222693,0.8752812558022927,-0.8047864501155164,-0.5710202687208099,0.008830018159157405,-0.23983598135492645,0.29049765384652293,0.755778626424813,-0.6554585682059986,-0.27432765221102473,0.18294666509257151,0.12788728969131302,-0.5309893793301627,0.5536209498505107,0.11390502424446103,0.7877306833305888,0.6343475144945733,0.9251689911042528,0.5209519824344966,-0.7399674187470477,-0.7103539934753748,0.8173089213653496,0.3656252663941783,0.8325609965681837,0.22460855177288674,-0.42721122606784245,-0.1175520593387126,0.6908148457011185,0.6066722269933775,-0.6701661390616327,-0.04755863538197014,-0.8003974623942463,-0.4488784234252945,0.8701476734584679,-0.662335501238287,0.37317638224322053,-0.7709671326160907,0.2326748341271081,0.15218114083618958,0.6676750978614145,-0.4860904615874847,-0.09966002972519972,-1.0,0.06294384881514796,-0.10160460574186285,-0.9810228345688792,-0.3073266972655828,-0.4798068710794028,-0.3881115980974852,0.4315000217062783,0.005665083052273978,0.7371465112872966,-0.8839013858692781]},{"bias":0.7284934473556102,"weights":[-0.39623333234305214,0.7373337241125568,0.4129765235170937,0.856763405717885,0.9721689879761706,-0.0505750202895731,-0.0005746407073467241,-0.21005070230303272,0.5820138963345327,-0.37552462693337185,-0.0025576709168180223,-0.8292946573785418,-0.591944059471506,-0.07941733823593002,-0.8514034082025366,0.28756711094512494,0.10710948522765164,-0.5399028431271791,-0.0032272584612629274,0.6288087377546755,0.5893497544109132,-0.0527740395259535,0.10890240480900415,0.782063572942353,-0.9582316979385764,0.6377407569753596,0.7347350778198374,0.5383742201403683,0.2552144399812861,-0.0907447171939002,-0.44399086305327506,0.1525873498873178,0.07645318065767892,-0.7618886138484171,0.44488745801685736,0.05396936955997633,0.7741389341644838,-0.7300055022492127,0.412055984742945,0.9901546595855093,0.8005054531212261,-0.255765935133539,0.9785809473708862,0.12428183051713404,-0.6917075078245798,-0.3703885222522758,-0.13532059331342414,-0.06026890433673758,-0.19831834136062199,-0.08540246298540177,-0.06130790681296322,-0.5305450225254837,-0.09923253868189885,-1.0,-0.034547352497912964,-0.6609189483027859,-0.41494753742762924,-0.32583868492403045,0.8458427795814653,-0.42975253719575646]},{"bias":-0.9435531412328941,"weights":[-0.5139149636569664,-0.4602816526736515,0.8787471203315875,-1.0,-0.1462652520164326,0.9519894177295001,-0.7780872994079084,0.07873984427502423,0.467180841715078,-0.3839108665040061,-0.2763164434288874,0.6238085390041479,0.5624502095944908,-0.9998382305738058,0.7624174105754299,-0.7281766401380612,0.604707978988978,0.3689074438420347,0.8498384899605282,0.10744940940770453,0.6926234391441439,0.07233715315287759,0.008833475605602596,-0.780732528054497,0.1943444085702546,-0.3448633649326526,-0.056013245392145236,0.5375454485474382,-0.27282855286577945,-0.10805263723907034,0.3414830542799896,-0.5293810581666111,-0.012462524999312219,-0.5948654985235002,0.2684139206772289,-0.1992682485792039,-0.7244608245904725,-0.13120797343147705,0.9087419783385651,-0.807439585758713,-0.9312850748095007,-0.5467866893366655,0.6379392582550247,0.2875282538630085,0.4160959588206512,0.9194034157069289,0.14634096884596362,-0.4530445353317769,0.6217495960753432,-0.0003021598651633539,-0.43949267198044595,-0.885991365054672,0.2259806007849512,-0.7567411152731047,0.18235026173063984,-0.21036402810566956,0.8072178781325106,-0.36562479400199904,0.28170329602976807,0.2442549353906692]},{"bias":-0.4578328557924991,"weights":[0.3057717032760001,0.4218710709414619,0.8362877770548492,-0.5541605704634547,-0.6448624419967244,-0.7478754702649315,-0.6665193049625259,0.939350958782903,-0.7865961261386589,0.047975572256666627,0.9007279295866608,0.2464205607801141,-0.20645253582510148,0.5581747418095886,0.020738635471246436,-0.1022180699888075,0.05616801093199676,-0.4835040764337406,-0.36993290065830514,-0.7654596987240403,-0.3022622925742695,-0.26943362015550326,0.7147616252329574,0.09786483831125548,0.1778782953779241,-0.36999570688846095,-0.27736320763032873,0.5070734252030482,-0.7210264528332666,0.643169699338737,-0.23681086310753496,-0.5033773090705532,0.022174819925011136,0.3041625423697911,0.7813897440537465,0.24187361096382132,-0.6590090027571245,-0.7249173007186642,-0.6064178280625581,-0.33084652364432765,0.812879206038667,0.49575457896743613,0.5016455929913386,-0.0044330743219614666,-0.4582182096547928,0.048140883485053354,-0.4607568458272379,0.780985813572376,-0.3265749785204908,-0.843555796541639,0.6416526341461585,-0.6670847917290219,0.38417550207994333,-0.8849692054063425,-0.19050647530971832,0.7625213516193229,0.7813904877453948,0.7365187819583192,1.0,-0.054903525752310056]},{"bias":0.7710334407466877,"weights":[0.19725711251121592,0.7551483977534668,0.43100388545550405,-0.12202118851021915,-0.8500767178590234,-0.012443333809592616,-0.02270520894061557,-0.35909248304713914,0.8677382513934035,-0.5735632936980894,-0.2644275686321178,-0.7016522574818399,-0.8912293764892466,-0.01805268654819514,0.9506182841065779,0.21282588534057054,-1.0,-0.5641370263377845,0.21226039915937644,0.21758901036300715,-0.45330844050552743,-0.8198962386346191,-0.7499059532081078,-0.21927135176146928,0.10636556133354302,-0.7876713765452898,0.2580563238879612,0.07253914845279474,0.9401196766332295,0.9042495951618165,0.38335197565072754,-0.8637198801095978,-0.5668806267257818,-0.20724414898442833,-0.6345868239006983,-0.05702450231219025,0.48094300051098016,-0.4914904374313051,-0.4720881056884208,0.8233187387883701,0.9159196006882744,0.7823258004567339,0.6902427405777356,-0.01301442208409219,-0.2867897422611976,-0.2068575264552015,0.7961866483890181,0.3372560521525738,0.7937746961277872,-0.3142296460368754,-0.1336951203251564,0.7867636816181629,0.010989555018127633,0.06562127004603346,0.2703205983263657,0.4139754927055119,0.24315669345592192,0.18254779285484624,0.8420996704585422,0.22370561598774372]},{"bias":-0.3204073008296331,"weights":[-0.8494964957076054,-0.6900374053137552,-0.3264436427897963,-0.7906588167102484,0.44449408076471064,-0.40654689422672696,0.2189679133947715,0.7780458611044553,-0.14599216165412904,0.5347852894041919,-0.9579835310263803,0.05893354553272766,0.7479993117326544,-0.3640264865819991,0.06410839082326791,0.6632014529843726,-0.8321836310349494,-0.2823380673686988,-0.9489328755793491,-0.0385444688759109,-0.3208591311001091,-0.6304846518549252,-0.8236462039185657,-0.2807864925441935,-0.4101420509631885,-0.569884649281547,-0.772039994358143,0.5595732534430544,0.30175838638750374,-0.38215839816447206,-0.7985111284084843,-0.5119961907082091,-0.2619972232513197,-0.5098681337512043,-0.8203673575563486,-0.6405015288730231,0.24694379224750057,0.17755988584543614,-0.35220787436614254,-0.0846267282425735,-0.6375568866808051,0.04464559959164256,-0.5477652121927181,-0.2968438710979991,0.6847102493586426,-0.9649475477595848,0.17557289465603754,0.6179108403610162,0.316957890226152,-0.775529896883477,-0.8281747018663386,0.1358151109111571,0.8103181469119205,0.9195132377783302,0.6173268767594116,-0.22651430936424477,-0.8791226223411798,0.052760725078558654,-0.10398739252335767,-0.1291612382164546]},{"bias":0.06582198626271127,"weights":[-0.08151782221679404,-0.04116182271426139,0.3844939703592134,0.4883289628242986,-0.25850205863685183,-0.308568749621811,-0.2416122997369308,-0.42054806372081127,0.35382774864263566,-0.7604630542980503,0.7488136984370225,-0.33891861380032073,-0.13035830889816769,-0.272422306814668,-0.6008895607243667,-0.7509944683552323,0.48995014998496733,0.05362602598433952,0.48233364319602295,-0.46935702909698707,-0.750765223797333,0.6289235328026279,0.3894987268194037,0.883818428436201,0.6089785929240126,-0.9836924150638939,-0.3478507508430737,0.9399708503706186,0.6029829458085669,-0.9059080281863793,0.963517734295674,-0.29679354238854255,0.5766871739491912,0.7649667476014406,-0.13430349836754304,-0.768609746391087,-0.796780119087916,0.4328771042985395,0.27912280403907724,0.055459730926198436,0.5441373817364896,0.14505753988854053,0.6591944982077318,-0.7617544668575698,0.38049073040898174,0.9226096651043951,0.9157063982737513,-0.8096101672691889,0.3233998693749194,0.14280475849902263,0.46885571530089765,0.49425368077139975,-0.28924252572498954,-0.7056143046967676,0.7801406999401683,-0.67457854704592,0.7059930725666863,0.7884846533967843,0.9718573139103979,-0.3570288158620013]},{"bias":0.5081880089368155,"weights":[-0.9331907892813708,-0.7714356982179873,0.27385539799611536,0.5070107059349942,0.8631837221240302,0.09223842807271498,-0.6182491428683994,-0.2922836060510206,-0.22812135765819663,0.8786427204813947,0.8648748469647206,0.5904770308251923,-0.11538841764872607,0.02309835903436056,0.2934245837722438,-0.3054924423551504,0.6972459827489607,-0.22915243941810087,-0.9752245223380919,1.0,-0.03401753909899119,0.7240368963569668,-0.2321616288390116,0.17444379067346505,0.9187450913171185,0.19638056370523316,-0.4627791716726369,-0.34837163591421483,0.3461699540464152,-0.4742245488175118,0.8228847292615593,-0.5889861452856472,0.4952604468588324,0.048470189845918554,-0.6238670507792791,-0.2426863535374162,-0.8290866862716602,-0.6729664552401698,-0.46184352487703473,-0.25726666393045794,-0.42530236105961716,0.6072938476759728,0.28200025709530674,0.4368754402769457,-0.3133524807408379,-0.9254023211515889,-0.05250792768503265,-0.6955904811409007,-0.5639976526648337,0.5920392832284751,-0.13435830162927287,0.18400704476345897,-0.6374967610751705,-0.768286634377489,0.525497202393508,-0.8908788117562751,0.7513963449934304,0.8418623398655973,0.9607657551504536,-0.0031966100695960675]},{"bias":0.38740577726868697,"weights":[-0.6449041274073779,0.936563250904962,-0.9225722999204278,0.5598430904369676,0.014401750710875807,0.7649867610682515,0.24302179595990925,-0.46536533246827416,0.4022769038016112,0.14632428863532954,-0.5921987052621227,-0.12919757852545777,0.4430466777830997,-0.1278967204446326,0.5719843940646404,0.27834657696289744,-1.0,0.7818027850863332,0.2672227664343092,-0.10058764404732212,0.13220161056024035,-0.8931139165919961,0.3411952011246888,0.9066597764231474,0.24790901186541728,-0.6514656475141904,-0.6628761387477913,0.13687376951644187,-0.5574951410290536,-0.9995802566619325,-0.6764490515824801,-0.41911866010390475,-0.26838307436790265,0.11766972559797362,-0.6977677306183896,-0.7883115750843928,-0.40498638883733834,-0.8110420161733397,0.2435509244476459,-0.49365132605553885,0.5896300774990983,-0.15921780481899628,0.7570035891188214,0.3625303913539386,-0.18562298126687737,-0.034025316166061526,0.6689983664523904,0.31729610414402154,0.5599630804592515,-0.2958331725987419,0.7591813670600915,0.5305486256094261,-0.5451631670411214,0.5357930058399591,-0.8700264033191445,0.8390711082882247,-0.9482812960507713,-0.20507611427170325,-0.462276808335192,0.7324983305379131]},{"bias":0.7291964845461609,"weights":[0.3935382535671388,0.883821291766258,0.8125764804660686,0.34936331219952643,-0.08701281393047319,0.38177477844547625,-0.38335896360799016,-0.8656293833792945,-0.7063764364425904,0.7784020886184785,0.2505057039417501,0.17236558736904278,-0.4996517361256661,0.9575419623766983,0.6655495189183718,0.29987839007505895,-0.4038484454136345,0.8421559338409916,0.9558456533941752,-0.11948409310947561,0.8892690587342722,0.5784104888375041,-0.06161202803382489,-0.47849451800624365,-0.7734550118391175,0.19120491397209838,0.7756876384503326,0.956716202207464,-0.6012897830921788,0.6415479021698267,0.38022178284259,0.8817109974658659,0.3035204258472336,-0.15252066088694605,0.6535456272927398,0.6439581746946574,0.17096048275362719,-0.16505254553018286,-0.3697167180023424,-0.10462531196150282,0.9949533178709573,0.7797969327039351,0.9360694432442803,-0.7207485927099967,0.5297290546312747,-0.660944623318668,0.7691991297481442,0.947005795571866,0.8913046585343873,0.7328474141987439,0.21832903213033994,-0.7806502903018133,-0.14325266828895256,0.1483562426970093,0.9010480976271407,-0.04754429370807278,0.43446136156852955,0.8418873738291448,0.3263252720838379,-0.9485935747403347]},{"bias":-0.5156827669868647,"weights":[0.3290091618394162,-0.7137106799629347,0.8214530062311391,-0.430463991168208,0.827535128455424,0.2780708338599247,0.1151203140102983,0.7419489711830237,-0.7519014624411975,-0.7997230731660311,0.29158639722603485,-0.6751048287102104,0.16670289240692027,-0.8848325337150471,-0.11439698241488913,0.3353168560570886,0.2216400225530175,-0.8939652898509216,0.4823284309203045,0.019861350752085727,-0.8379524365758124,-0.8840112902249104,0.4837937041061289,0.7966839584397634,-0.9902095552468135,-0.5327803793409416,0.7547217343765071,-0.41087519653063376,-0.4724083377157817,0.22995157057461002,-0.43993022887639116,0.8690845590450208,0.7088052348525347,-0.08311667804391684,-0.6591534151888858,0.4958872982457826,-0.2852501137979607,0.240391471605085,-0.18464842674646675,-0.04922571681151143,0.3714677221742426,-0.09644810236537538,0.47442068277010385,0.8019139719650585,0.4252438080001274,-1.0,0.1231132757495943,0.17536594476740328,-0.3486842471230007,0.43395118344072703,-0.40216673947153536,0.8501416168486009,0.6563924075883838,0.056150101735861664,-0.20498201688340734,0.8989291384593209,0.13543518688661782,0.27821922538128163,-0.3966856664425302,-0.8905680231504287]},{"bias":0.019698762923290758,"weights":[0.29692863230892785,-0.5934950020085432,0.5326981199277805,-0.6130643505251849,-0.08947873268961272,-0.9178506578491197,-0.2655470192923262,-0.4162934602809137,0.3404500840826984,0.8606511304262567,0.16498759974486799,-0.24757224045154363,-0.5695700522124585,0.6695089240504855,0.9848516403236944,0.3078875822408711,-0.9591941595496748,0.4030607654018574,-0.3530092494439924,0.6608568311928735,-0.47993604103930065,0.055275976146233585,-0.4153639770487005,-0.5619016896623925,0.5620853031294426,-0.2535341568590192,0.8782084932107135,1.0,-0.593489919557876,-0.6989425169068024,0.2453020435412091,0.8681329656458665,-0.05169202663919477,0.6681646320200265,0.8652114617137041,1.0,-0.4396268147861894,-0.7535943747844303,-0.18985354367264842,0.05967879366470279,0.3145541823991429,0.8961406373610665,0.6445801646874669,0.8963703660954354,-0.4669649577924355,-0.7378582057435839,0.13801382131142556,-0.06760429353549095,0.036885422993854014,-0.8172590684716585,0.06448420507296193,-0.151465266365991,-0.6694759962192406,0.35722257409446906,-0.17355462796763943,-0.3306731737603563,-0.7908322305674095,-0.17578351734570186,-0.03715978046468482,-0.7144361713841301]},{"bias":-0.009796080901862236,"weights":[-0.4729534342604782,-0.028594154484529163,-0.5675370804809267,0.023868582286488582,-0.19532636470319067,-0.2906719834997245,-0.5378847999980203,-0.45281420243557724,0.8862586860805131,-0.6310922917109949,-0.08213232631237188,0.8516291123114814,0.5104846530415443,1.0,-0.6939244816827267,-0.06724069038345704,0.42312129836874046,0.9972780996974921,-0.6658461074923201,0.752528480725204,-0.5680722437156804,-0.1958938991840288,0.8006415541984104,-0.8741949014243741,0.41918399939614925,-0.1579444580985765,0.6303995208594406,-0.8395872915696236,0.8996492551713349,-0.08856208456851267,-0.05307078083551353,0.2831475003425631,-0.21007649820619445,0.19723390359329532,-0.38037840512770815,1.0,-0.5607202230707156,0.7155269008082561,-0.2458139627869005,-0.3826826884172828,0.5857167727578818,0.15404829597608727,-0.911504625706367,-0.2946878222440166,0.9065043354441511,-0.16635016192878205,0.5210559041915901,-1.0,0.6667085045272351,-0.20121937018352076,0.41068686436396584,-0.9135133371425472,0.4999370220543242,-0.06426164273894783,0.2472529723193826,0.9241293458484541,-0.4291187406461378,0.044636286023413074,-0.01898163784647755,-0.8197160651554013]},{"bias":0.6533499193836843,"weights":[0.417511414102369,-0.7841674321150598,-0.8023813917015087,0.8142764835790811,0.1620134444635184,-0.6523940030794293,0.565868293520194,-0.22677374882964996,0.19181838085800437,0.06984583021702251,0.3254041795385598,-0.2711059627156546,0.022691863287429323,-0.8707239529152077,-0.5922226014721237,-0.9011057485490377,-0.8635106480896938,-0.4540875824611173,0.1477251675272866,0.470468686411889,0.8910060809539893,0.6919821930300185,-0.8063488901717091,0.7841401028445218,0.6242106208621823,0.048544544375240584,-0.5412402979603134,0.18044222821992673,0.7969877634548124,0.36194962694125793,-0.8020594678258743,-0.7332611914363252,0.9980665867202574,-0.13753662758864382,0.41707864890828317,-1.0,-0.03305006582950291,0.4902788274727743,-0.3725008062076509,-0.10986779662057009,-0.2206939581914423,0.022577063430275473,0.7131737627452908,0.6811051257807366,-0.567429510692502,-0.28666220191192116,-0.4320287528113691,-0.7932880864630021,0.8538326501436369,0.2732289581479977,0.656673350855772,-0.4177888301473015,0.9896235916519648,-0.9410101363121544,-0.13699026038744036,-0.8589592205908786,0.48185114867021617,-0.8153662255732109,0.6784575193706331,0.17248028761082645]},{"bias":0.3620746163619155,"weights":[-0.6566656244336029,-0.4781359740240638,-0.7825223672620455,-0.9246123103542696,0.524490855085769,1.0,0.4912728815099001,0.9187340703036204,0.7120421167301558,0.581397571741146,-0.9534342045379475,0.4006533385429377,0.9896221899306243,1.0,0.5877086786846314,-0.37861133339547537,0.3813781750155649,-0.47201930171387296,-0.8550139048839847,-0.3305755977775289,-0.19317419430510235,0.017028727412443073,-0.7868486775503214,0.3559765067852956,-0.5347650205076722,0.5773032132637299,0.7689626570762298,0.17148004193760036,0.8972281421893735,0.9793168489642605,0.7030740567003275,-0.4046781073984653,0.8034025875743953,0.4500713410750494,0.6875122235822283,-0.9677491830739655,0.7955137641576835,-0.6296202112354143,0.9533263365430097,-0.6446308722589118,-0.23016014876337865,0.7147158788235983,0.4074835801955285,0.11423400170909881,0.2536520952452359,0.5454968067393247,0.711149443232685,0.7941226909612402,-0.4374257329670321,0.6071250438977551,0.978941297356481,-0.033276735204955214,-0.7668805894114114,0.6459653614313567,0.5692263787593808,0.10810786927312219,-0.40827523579741987,-0.5646180286812301,-0.21175705169480336,0.8738630331542412]},{"bias":-0.8055265840058331,"weights":[0.7086423982448862,0.3740083611449698,-0.049946404202118745,-0.09986351985314876,-0.11021228327568044,0.11255162375139795,-0.5728422894837935,0.67158912444033,-0.13230690033504097,-0.1440501723867058,-0.42042670177854724,-0.7169867960931711,-0.9273563481571644,-0.6538850435575667,0.7953495513463906,-0.29251076043544755,0.6079090458134209,0.8411778083676493,-0.1740003882966059,-0.7371178843669373,-0.5994550495366417,0.12202702052815614,0.6576475774551023,0.9019402557943386,0.870411660992694,-0.524967563012364,-0.7413061976351414,-0.27992383168514534,0.14733712123317355,-0.9120786387206778,0.7111243506152958,-0.5088647769814312,-0.0594022251882409,0.12812906772101307,-0.908857645538393,0.6030939133128737,-0.2160533648222116,0.14867990495232286,-0.6436341527074612,0.1723944507729427,0.009284719840600086,0.37740591589599787,0.41753263562950016,0.707103940431893,0.16012967156209568,0.2514134697530802,0.9249499487112062,0.8512812839095325,-0.29086170109565845,-0.13716222988140503,-0.43921469134439795,-0.09930045238201846,0.515413893166877,-0.552348229926622,-0.8271094873609677,-0.4003657199433439,0.3202311110821658,-0.7163986104993816,0.7162143486460852,0.19493742584828055]},{"bias":-0.9769250551573921,"weights":[-0.17625206551793543,0.8909152924974015,-0.07782614451069643,-0.8000432996079074,0.6306597965229144,-0.9666653888509726,0.3914176259121547,-0.6378631135025614,0.2415504167466026,0.7772070901648838,0.8025642577802976,0.6392860246684364,-0.9212020506904616,0.18246022010889393,0.7775934429149347,0.49714982332847424,-0.22961429521879273,-0.5333125903593715,0.5719317823018764,-0.344106911789281,0.6025697217846306,-0.8369805864345307,0.5202608291353275,-0.8865657551163177,-0.8724808225801234,0.7691070511536973,-0.139336426559323,0.2867919336462532,0.7435459281908949,0.3697964737599152,-0.21718744265429002,-0.5133895186442897,-0.5422805542774833,0.227587323082399,0.4376845938589109,-0.24504875877916676,0.7595338413046518,-0.7320338208462611,-0.9187605544592667,-0.5092582670695329,-0.2566135138532246,-0.39774208370493414,-0.8706165776005892,-0.469755254246333,0.666333759344278,-0.16571768160432845,0.7614251328030397,-0.4470062813154465,-0.2211524249746344,-0.12736053025756533,-0.6740897344274943,0.01894934169362994,-0.23697244350617153,0.9145799630441198,-0.16908413529830055,-0.4020792447672097,-0.16434301989260147,0.3946499598331479,0.7391705634969031,0.6883643739939534]},{"bias":0.41039326862039477,"weights":[-0.197838087007701,-0.43211090620434645,-1.0,-0.7779068186960258,0.7958831241592668,-0.7396340759010056,0.8032530984828293,-0.029205317123306478,-0.6400589455393622,-0.9745052701352074,-0.816604262931745,-0.8756267589974938,-0.5156377341109097,-0.5395237928481981,0.7809647305915615,0.32988959202220736,-0.03539162101560753,-0.41679226410583814,0.4928139049218765,-0.033241975465763504,0.4424746110245934,0.44702540543810265,0.6884855599929778,0.017492943815767603,0.9711246321838214,-0.05812142003633629,-0.8529564738960222,0.7118671765242398,-0.5862984025596414,-0.4263200545210575,0.4377078161196053,-0.8548194382183728,-0.36238264307515866,-0.9687235864717287,-0.2961822231715692,0.8711534113716835,0.05172637603449104,-0.9376588016272205,-0.4392520806743798,0.29488407633404856,0.33518551928978146,-0.7433724599604874,-0.2125143635420052,-0.21249090005537316,-0.28791496466988953,0.3278587036912466,0.42959489078964275,-0.13184899902100805,0.5223956842215841,0.6901202001359618,0.36571534749878687,0.8783239304396315,-0.7093589577587274,0.27357888229809046,0.6296025131963386,-0.9579086809521593,-0.6952389518327577,0.7982149563351504,-0.8035880982581705,-0.48971258399777984]},{"bias":-0.7867521503150952,"weights":[1.0,-0.32774676763936084,-0.004633428693499475,0.6558854268281746,-0.6736348280168911,0.23116859958704955,-0.4582999707435816,0.08859492015874458,0.7579533353871235,-0.6983316928602188,0.31684978865948027,0.46451143041201726,0.40548745304064227,-0.8145667736586116,0.32372822722663847,-0.5190850207375289,-0.7331752053387794,0.8485167803883953,0.811536153664941,0.5656142618507577,-0.2908556510779303,0.33033167233626326,0.6102959104302026,0.9753745593478502,0.05488481419077473,-0.4572977249669196,-0.9897332951925017,0.6710850372820948,-0.030949314615493002,0.9349873405020159,0.852638441355285,0.9946926313664681,1.0,-0.13029690534371124,-0.5108628979534338,0.8806413773267097,-0.5838730566406779,-0.4008419716811117,0.23477968589641918,0.8357720586105166,0.15566761729410056,0.42575225524509897,-0.6339341867509365,-0.41786594557583817,0.916791386610845,-0.11160542615043376,-0.9796779913454867,-0.37224511900899265,0.1404741842480135,0.042267533908458166,-0.5244504028288043,0.010303650833548783,0.8416548718727359,-0.48231325724251706,-0.0111018592215416,-0.01828134316287206,-0.29916893168242986,0.7600038597012825,0.604202216829909,-0.08335912586438711]},{"bias":0.1772272374597842,"weights":[0.016630065045160868,0.21394205829653296,-0.862282989399132,0.8411055193661346,0.7804642278648628,-0.7766114776459186,0.7447303102947029,0.021088622559691475,0.6406944157852701,0.6711378691623879,-0.8789937682984021,0.4630762823122976,0.7657225549116755,-0.8618269056602627,0.4231628462725521,-0.3203896205334752,-0.8435251218232113,0.06313873956278807,-0.03832807749525596,-0.8143526749673775,-0.2855355830698132,-0.0739488790152798,-0.4893869828001347,-0.24013553388389353,0.7302510185730848,-0.2935914178409007,1.0,-0.7515774774305549,0.17957809398321184,0.2964922417077851,0.9054630883700577,0.32106385683140093,0.1346414905992886,-0.255256848022264,0.29538441067809285,0.6369781451290351,0.14532312985053347,-0.1972454728809095,-0.7814612167454357,0.7887403007970173,0.31524329574917775,-0.5891679814258822,0.48296853254979677,0.08297854349367562,-0.7071998432741848,0.8397003154664637,-0.6502980590483032,0.1676788980112276,-0.34156784701227366,0.26255027380683976,-0.6688728459685995,-0.3761591764381209,0.6173328818346486,0.17071841895570145,-0.9000564652702328,0.19278574231909884,0.7273119003887429,0.2441779772685583,-0.051452227042996235,0.4145725371420414]},{"bias":-0.016456387188626298,"weights":[-0.9323742169063638,-0.8809428475905121,0.714450837770871,-0.5046702788414897,0.342011381224403,0.45352091550098494,0.22843713464272156,-0.4934488977179594,-0.34269518530202925,-0.7782003069899203,0.41175283073399793,0.23782139689139603,0.02692910203339327,0.18049452512186415,-0.6918353578389529,-0.9996711158707998,0.5921001785609504,0.9966011684626297,-0.32825332264052687,0.02029288289705855,-0.47839665978971246,0.8842204284410955,0.342725203118762,0.5185414978177025,-0.2716453729078765,0.8399423358692801,-0.11241773562506818,-0.5860428558600528,-0.821244545354742,0.4235362367026786,-0.6432012133532767,0.08064753116361212,-0.02012988136902688,-0.21463948914080522,0.0826654442915693,0.7981199004973942,0.9134220465828495,0.9330019925348036,-0.25468844079172304,-0.8223198840214536,-0.7942420173836919,-0.6374771662101062,-0.7869819947991941,-0.5445566284624177,-0.7046547209615259,-0.39868099603119617,-0.6853419363238238,-0.06416438828842175,0.5391896806130636,0.43534757080649333,0.14326577629764511,-0.8064395219145483,-0.5031180286396997,0.7140743527085207,-0.04726966600277066,0.812928866054623,0.7894155856638244,0.44679807433975904,-0.2892917109323836,0.32345589576660316]},{"bias":-0.5909330455977932,"weights":[0.8110041663776473,0.30592810661164194,-0.7050214142990923,0.9360009340560556,-0.5659349598576641,0.03940543143686879,0.5039527482929138,-0.8595436197881259,0.8375804854904318,1.0,-1.0,0.5389861846975008,-0.2686725053515402,-0.870368367948875,-0.6413362057293805,-0.5840578748397429,0.13526673933909797,0.43711174329249614,-0.3228940351080092,0.04374817629522834,-0.11634616895969058,0.32985781242776085,0.45041503960123974,0.6914826414461958,0.258410032586602,-0.31427828882561626,-0.9535206136187928,-0.4447926642328759,0.7576691029490421,0.45383007050165747,0.10050480325702837,0.5742204297533371,0.42931514752707,-0.11829969176916542,0.7245088497194698,0.8133049931747991,-0.3297031620631117,-0.36947408777856344,0.22873182320370633,-0.18002647323020415,-0.3560414857738028,0.20562631468492631,-0.3519409982169659,-0.1449013068459748,0.12568395794608417,-0.31372920394316395,-0.7163533738630119,0.3493821037524267,-0.9715278443367129,0.5021370579671403,0.9567792759261096,-0.11255612811777116,-0.7843914650417845,0.18572151133964176,0.9327782922102754,-0.5754363647227412,0.7425239897236153,0.04697343756099137,0.03528396356941199,-0.2145178086260559]},{"bias":0.9155125992705613,"weights":[-0.8407504779886407,-0.958166345388167,0.27360452563380033,0.12919421706912404,0.8267445647784171,0.8009584183998566,0.28151325284933737,0.9486023170528086,0.9275264712762182,-0.4376425173822076,-0.6091573909751284,0.3633895211907666,0.22566475090342397,0.2533255398237351,0.3305746923220753,-0.5384571824251858,0.043534373372319995,-0.38707152476763484,-0.21671830220699473,0.4214115968891117,0.9172624712851989,-0.5613709887135777,-0.08569939146356413,0.8973899287582062,0.021984659270901208,-0.890423815080208,0.5445672525205261,0.4962922446042024,0.44027581590054243,0.7120985945204361,-0.7464905249248917,1.0,-0.4339639136537836,0.3076143395355966,0.485766836770415,-0.16418951135272142,-0.933275870479835,-0.933338447930431,-0.011732292862772428,-0.01759557529140876,0.3552826318084008,0.7412709116627216,0.365460983902417,0.5675829881137862,0.1503917886830914,0.3338290011649412,0.9315064970898606,-0.5277771998472403,-0.3468929280783044,-0.3655584885931704,-0.5319116085485341,-0.41419723034317624,0.5712820561065269,0.4347593389793272,0.45868929808309566,-0.6891324540175539,-0.5428696696848788,-0.10968676748293793,-0.3511608422700554,0.11535930551423695]},{"bias":0.038262201597828636,"weights":[0.22065648305995428,0.8001133830860772,-0.09257572570454732,-0.25742296764320527,-0.256506451433022,0.7192615034689763,-0.9767552857691268,-0.6615739896413801,-0.8425707783876536,0.4256139825736849,0.26224733738054484,-0.7680953699033353,0.6758900605765414,0.5358867951081536,-0.33820909550870537,-0.979584467158936,-0.787576758843605,0.27909984546796673,0.022686416719958746,0.8437842134587301,0.36622836067079056,-0.15685915433772255,0.6334660157981133,-0.47721618846968505,0.00248326088392109,-0.3717999068127642,0.5841902757768933,0.07429103568742557,-0.07898249753326203,-0.16047230284201808,-0.028079175822254054,0.35968368173767834,0.06319760194011814,-0.48656994525443864,-0.7131912876429047,-0.9497505456210065,0.5320664613092148,0.44250653228133974,-0.30133042836016755,0.11264331022427033,0.3956502130697488,0.4807801841665431,-0.08219901007884402,-0.22429363732591506,0.423529897699606,-0.5020883490210428,-0.23066065646457445,0.4001746738018298,-0.21902918231493684,-0.20216755162154643,-0.8870985622078984,0.6076059960051873,-0.6271862703567588,-0.383984183182986,0.7143124804360923,0.2564709611060496,-0.788458108689316,-0.40499986289613377,0.7163296275394962,-0.8821262909692797]},{"bias":0.504171077695108,"weights":[-0.08926126225186538,-0.061986614958513694,-0.3069905872223381,-0.7697848322717395,-0.6567674208298886,-0.3297834175464236,-0.4302221431674571,0.1774597141364742,-0.294465561444231,-0.5891155512113939,0.0337334553712636,0.8967732439675794,-0.7684200404739472,-0.18390900835438329,0.38684590002203123,-0.7355618506576921,0.6838602956739144,-0.38584985988446396,-0.20991778997115573,-0.030084400175218295,-0.44634243657023553,0.4547293368158223,0.4614386028412061,-0.3200869824469339,0.03169570270449018,-0.23154058204447292,-0.8057848509309271,0.16474606181413468,-0.8095898875212644,0.7723518378046417,0.32001525314213386,0.7227534166794178,0.08171344197335273,-0.5255286468186924,0.3825718653517416,-0.9654527034587055,-0.7034903049266463,0.1940306054793973,0.2507812011294841,0.501892043244375,-0.1843761922685938,0.43922980720559135,-0.9552338918572456,-0.08592599246857091,-0.5730157665939667,0.9263071312487086,0.6343551594211756,0.5788588488854383,-0.6104488914953241,-0.963824976764788,-0.35187537141194136,-0.4931703711588026,-0.646910517763727,0.8386559756710444,0.32412001546370384,-0.47194730280871583,0.3961130601264631,0.10171134978150691,-0.7204783066702768,0.7864349353973321]},{"bias":-0.3463843416162775,"weights":[0.07464216755422563,0.9028712721517554,-0.0867060357142031,0.758563587975492,-0.3416735620294576,-0.5769703945913048,0.5619053656114326,-0.4058776471093517,-0.35920629724306535,0.2106385900321852,-0.7134001457795899,0.16905905564485213,-0.4839263250004291,0.808173663183869,-0.12604594202553954,-0.4784194265402686,-0.7670099415844772,0.02337294396113032,0.7639166767591954,-0.9375296727137905,-0.5810845070783048,0.18197494924821742,-0.5809131329877544,0.6475377223590888,0.6080786509752225,0.5670940845030517,-0.4032808282797524,-0.6700663560808442,0.3997355805902866,0.30758741643129506,-0.5658741569823187,0.026181171535951522,0.06405568193667444,-0.21916225663967248,0.9186125157128535,-0.5822880179719994,0.33276761717401054,-0.34935100927761464,-0.2773218505445018,0.5053657936375939,-0.3612832111632828,0.6153447505812379,-0.37125147958250526,0.4429010498990536,0.6885694826931089,0.876430807497522,-0.2904127845066613,-0.2132184554508143,-0.3499313091996439,0.09752200829732383,0.9730154899545864,0.7420812923845899,-1.0,-0.489970683392861,0.08705894763331612,0.003560823272749758,-0.12934748518157235,-0.3075053832254251,-0.8122503070629656,0.9901186075003126]},{"bias":0.4535971653444581,"weights":[-0.8789475331841956,-0.5622192005606164,0.26327912702915457,0.6424854866768716,-0.48665841348080724,-0.43673433209983026,0.07150136799080203,-0.7551986787668009,-0.7836876910070515,0.6110658945783434,0.02362064480484983,0.06741620387055505,-0.7293950803054816,0.27250069376297237,0.5344577196653919,-0.08764826024433958,1.0,0.06407572596396394,0.6626857314778132,-0.8956820400427192,0.7890254422731225,-0.6814663220099513,0.4825630214632999,-0.06013028889547645,-0.6662423781549401,-0.1469154021969068,-0.8690695249805623,0.7076355797621505,-0.46033106195414175,-0.47122680320435495,0.11264017302318585,0.19419434363213162,0.8238460100228546,0.917057770032853,0.025693580222266643,1.0,-0.8413379282631284,0.26586885611580646,0.881170313332514,-0.03972992459749758,0.7320676872879051,-0.3199033074247794,-0.4381260085577612,0.3209801026516059,0.6677676070308929,-0.21411530850009808,-0.8426844149314601,-0.9437486936677058,-0.3052683434999288,1.0,0.2381587680943862,0.7669189890403557,0.15778249577516856,0.3991741447880175,-0.9458402221639464,-0.2494180360168262,0.35733819282170876,0.8969477110083894,-0.9823629922699495,0.5192807296716526]},{"bias":0.9944390416335371,"weights":[0.25840324165001727,-0.29910656037842553,0.2493154341816865,-0.11854404759152937,0.6320872316228089,0.8300676247475607,-0.4649058662183284,0.2898475287101281,0.9809154967387252,-0.1670124914547576,0.7953320437817526,0.35635043219325585,0.7016120811390492,0.12735374479064468,0.07310147897461036,0.6905178401446488,-0.2566408535752846,-0.6466036296704978,0.3442537626736981,-0.08185457726817358,-0.4694310671941014,-0.8803849387063138,0.5135226898948821,-0.7891960597003083,0.4718162405120714,-0.6527105630517775,0.10788478194039082,-0.5678035371634258,-0.16156431189052944,0.671488494055951,-0.06318605822320134,-0.7808188502713427,-0.8311191602992176,0.8603063247973226,-0.13037838916707534,-0.10562093130158123,-0.4614256716537448,-0.9650974147464276,-0.8230572316374078,0.18822348362310454,-0.00440292538891951,0.6573687510408631,-0.32803209389294335,-0.714832220037634,-0.3078013461593798,-0.5754643142878386,-0.72246279825062,-0.10906111846742969,0.3549990779423351,-0.7448324970782103,0.840312040494076,-0.23462330494941575,0.5054925819221208,0.10079259019176223,-0.09377945182765135,-0.3180589651008295,-0.5349489782022552,-0.21955748632234018,-0.007298024998388372,0.21621112458008146]},{"bias":-0.09962668347620562,"weights":[-0.8579980122172377,0.6100253577923245,-0.2048479071776086,0.11102857973318914,0.5439553848523451,0.5726968399336911,0.6123959514607153,0.5505595575581617,-0.19979781573492053,0.6080452866020307,-0.9427306135460372,0.6537875776070905,0.264136349259267,0.4286702624787053,-0.6743913713760716,0.35189020739972227,0.6633629676964589,-0.22672282612798755,-0.06663691645489418,-0.46361879810284556,-0.9878120521350962,0.9203645258749243,0.8565708018073953,-0.5034516268728592,0.8643649789465941,-0.857329039861848,-0.7186833180671948,0.7111044787940202,0.2572496476333268,-0.6039848807266335,0.46842986650971064,-0.40523442833671003,-0.14558076306849793,0.4987296756957744,0.24975986633588398,-0.45933475296947224,0.044893296285451356,-0.19761648935169207,-0.47545246018253673,-0.3578404732167451,0.6624791325401622,0.8660842391395808,0.4657694973107416,0.8645053386868851,-0.8439525835133328,-0.6482144286017035,-0.7268944886800188,-0.28639307846729656,0.011950426835180591,-0.003117599686117689,-0.9665102330971953,-0.017727470976829363,0.17645072415713953,-0.16937106033315616,-0.5042544642258373,0.6842612399545862,0.7388143667444459,-0.43700062425776665,-0.5868810990150912,0.04609815184107413]},{"bias":0.20763116943341378,"weights":[0.3147796045035869,0.009651550684925958,-0.9119885687202155,-0.2583789688752587,0.581488391018104,0.48317880482282405,0.7249271522855116,-0.23393674206167248,-0.5730766315401179,-0.4319154081526516,0.7137650370411603,0.979963473857991,0.6958869869643545,0.39044139095026775,-0.065895750432591,-0.9664617920946394,-0.058560468304725874,-0.14427625091538207,-0.6957189729568038,0.0057915145856831385,-0.029180798595539723,-0.7521762403231127,0.13721875037436515,-0.8967360662277408,0.6734189824631919,-0.9749952757756986,0.7020412363635797,-0.3634838223838371,0.5484230913450876,-0.2292953405816487,0.08533045771663117,0.8286915112039024,-0.4798304011846727,-0.11487467426988163,0.3725877241622214,-0.49813414403957124,0.8657340370162433,0.773866779986534,0.48627370644697154,-0.7362241783741039,-0.8518735933540982,-0.2718076564803167,0.1573725689274692,0.32697336095455715,0.9693192465632681,-0.9833150240818123,0.027996677490360167,0.08375415143378882,-0.4131645058351938,0.8639194924551173,0.5933518227478936,0.37704609331126093,-0.14097962804373504,-0.2664331228248742,-0.23888714032852754,0.47418534156998593,0.39613134473974476,0.018629622321312087,0.8935453565411301,-0.7212534231151125]},{"bias":-0.7404525682958979,"weights":[-0.6620155561147106,0.9130321170481408,-0.1428885662518605,-0.21328283211477608,-0.025004407920869554,0.8546301988462582,-0.5794017091888494,0.9096694314175338,-0.5381382613537922,-0.46403330781216306,-0.32448911171797645,0.8544556426796981,0.42154013300184134,0.22018389253225185,-0.9109263083367458,0.10562654301380903,-0.8851054808032632,0.5628937349905394,-0.4206111311391044,-1.0,-0.4991013798566178,-0.41069319632553775,-0.9851573714863605,-0.6472550405357272,0.9975931319512052,-0.9975120220371921,-0.9633159428289902,-0.09918137187627085,-0.958434871852373,0.5647306755543458,-0.3619524582123663,0.8378262391097356,-0.7372630820878783,-0.12984709163759867,-0.6550285212806969,-0.5977091390257154,0.24144101941853613,-0.8842302255535437,