[[{"bias":1.1021634815178833,"weights":[-0.0375057612606849,-0.36085353011966875,-0.7342156670771228]},{"bias":1.4887711198790194,"weights":[0.6441867944811056,-0.9461808810850681,0.17066883460335183]},{"bias":-0.6284548111266047,"weights":[0.28402403777867913,-0.627686641798934,-0.9558889543953082]},{"bias":-0.246204467240898,"weights":[-1.0,-0.4385214383078363,0.5524339719920117]},{"bias":1.5212676041372304,"weights":[0.40552299624702326,0.11479700836116041,0.6655718137218846]}],[{"bias":-0.1920675980028433,"weights":[-0.6468697586716342,-0.4615823073829001,-0.8511862924449232,-0.8792705789594901,-0.9608850716214838]},{"bias":-0.7608696647480185,"weights":[0.8362783140365168,0.8262831067982649,0.4360744618089577,0.13048959735819204,-0.9888688347595657]},{"bias":-0.2527659007366577,"weights":[0.08542811679976076,0.27024469593239525,0.6896705004604556,0.622425632460112,-0.5619630904223699]},{"bias":1.074004315941855,"weights":[-0.9491085096242058,-0.8153060390870895,-0.6541576127639701,0.6294791562319996,-0.08190005767166433]},{"bias":-0.27907086083590527,"weights":[0.2872757772663389,-0.28106737210322186,-0.2925951741244176,-0.8619045226015541,-0.5138922858280278]}],[{"bias":-0.21658637107452516,"weights":[-0.8603740514298365,0.4357405469953195,-0.394480393272736,-0.17506059498981638,-0.3537572603007803]},{"bias":0.10160451444281111,"weights":[-0.12119645254144995,0.5917364227692928,-0.6986858987054987,0.2938958396076671,-0.4884353777187712]},{"bias":0.3327014269816005,"weights":[-0.46016770962411657,0.635419789061322,-0.8283949908548373,0.18012383909961827,0.43186762745024615]},{"bias":-0.8047496712963866,"weights":[-0.11183543281132056,-0.36540615524503295,0.1596091387364957,-0.2708141751223824,0.7587749382930713]},{"bias":0.5031240884119357,"weights":[-0.5494482292081824,0.8248943427808713,-0.09667710160085634,-0.13114644758948346,-0.025341349896566695]}],[{"bias":0.9478091739427359,"weights":[-0.1167972920944331,-0.7981285329780361,-0.22062938710252852,-0.8092124654097195,-0.08341139279342771]},{"bias":-0.11681106952066997,"weights":[-0.6966460611152543,-0.2771716717011391,0.8079785134166377,0.3276906475663532,-0.003168744084844688]},{"bias":0.11317867198458353,"weights":[0.830731790085411,-0.12679186553547775,0.4224247460576981,0.6040915393858874,-0.7768707091555795]}],[{"bias":-0.12731919941973047,"weights":[0.3166705610034939,0.7642696419038426,-0.19639006532131761]},{"bias":-0.4585158270291261,"weights":[-0.06523550593129027,0.6696267433103988,0.512596061756011]}],[{"bias":0.8810896011885752,"weights":[0.530556740486335,0.4755221589606817]}]]